svm_type c_svc
kernel_type linear
nr_class 10
total_sv 306
rho -0.5185072173239222 -0.619471193760983 -0.5056308046446722 0.20144838425255468 -0.8145992309854811 0.17013665524740604 -0.4539781224972798 0.7322541096055247 0.2289792532424499 -0.020399918878365713 0.637175422576666 2.2415422875177247 0.37480364326758836 0.7022379766395755 -0.14322174397674975 1.5779084929530036 0.5837839817362851 0.668822041649537 1.3631897377722662 0.21606748892144534 0.5680547893308872 -0.14930743426918078 1.732691577323607 1.0362202606481834 0.8417054419814398 -0.2849994656907422 0.6121008661944386 -0.2004722819586335 2.576130038323596 0.5265649265457182 -1.1422143232077797 -0.2695001749465743 -1.4080699482040295 0.41413084791427696 -0.30227454157288286 1.560895255823606 -0.14194297337651776 3.03061775679708 1.0220937463664344 -0.7231303826086153 1.2918423486173367 0.08696865499822817 1.2656313922029705 0.6637058646685733 -0.6824891573566729
label 0 1 2 3 4 5 6 7 8 9
nr_sv 26 25 35 34 30 31 31 37 31 26
SV
0.0 0.0 0.0 0.0 0.0 7.574706121487851E-8 0.0 0.0 0.0 1:254.0 2:255.0 3:246.0 4:255.0 5:0.0 6:8.0 7:0.0 8:1.0 9:6.0 10:0.0 11:255.0 12:248.0 13:248.0 14:255.0 15:246.0 16:255.0 17:255.0 18:255.0 19:250.0 20:253.0 21:255.0 22:255.0 23:5.0 24:0.0 25:0.0 26:0.0 27:20.0 28:0.0 29:1.0 30:0.0 31:0.0 32:21.0 33:2.0 34:238.0 35:255.0 36:254.0 37:245.0 38:255.0 39:255.0 40:255.0 41:235.0 42:0.0 43:13.0 44:1.0 45:6.0 46:11.0 47:0.0 48:17.0 49:0.0 50:14.0 51:2.0 52:0.0 53:0.0 54:255.0 55:255.0 56:249.0 57:255.0 58:251.0 59:243.0 60:249.0 61:19.0 62:11.0 63:0.0 64:0.0 65:255.0 66:244.0 67:255.0 68:255.0 69:255.0 70:0.0 71:6.0 72:0.0 73:3.0 74:16.0 75:241.0 76:255.0 77:245.0 78:249.0 79:251.0 80:255.0 81:0.0 82:0.0 83:11.0 84:255.0 85:249.0 86:255.0 87:255.0 88:251.0 89:255.0 90:255.0 91:9.0 92:8.0 93:0.0 94:0.0 95:13.0 96:0.0 97:251.0 98:255.0 99:255.0 100:248.0 101:0.0 102:5.0 103:0.0 104:248.0 105:255.0 106:246.0 107:247.0 108:255.0 109:255.0 110:241.0 111:248.0 112:0.0 113:0.0 114:6.0 115:0.0 116:1.0 117:0.0 118:218.0 119:255.0 120:255.0 121:3.0 122:2.0 123:2.0 124:255.0 125:254.0 126:253.0 127:255.0 128:255.0 129:245.0 130:255.0 131:255.0 132:247.0 133:17.0 134:0.0 135:8.0 136:0.0 137:14.0 138:255.0 139:255.0 140:243.0 141:0.0 142:10.0 143:0.0 144:248.0 145:255.0 146:251.0 147:255.0 148:248.0 149:255.0 150:254.0 151:235.0 152:255.0 153:239.0 154:4.0 155:0.0 156:5.0 157:0.0 158:255.0 159:247.0 160:255.0 161:7.0 162:0.0 163:6.0 164:255.0 165:250.0 166:255.0 167:248.0 168:255.0 169:255.0 170:246.0 171:247.0 172:255.0 173:255.0 174:0.0 175:16.0 176:0.0 177:0.0 178:19.0 179:0.0 180:255.0 181:0.0 182:7.0 183:2.0 184:5.0 185:245.0 186:244.0 187:255.0 188:242.0 189:240.0 190:252.0 191:255.0 192:255.0 193:239.0 194:255.0 195:0.0 196:18.0 197:0.0 198:0.0 199:4.0 200:255.0 201:9.0 202:0.0 203:0.0 204:3.0 205:13.0 206:253.0 207:237.0 208:255.0 209:255.0 210:245.0 211:255.0 212:255.0 213:253.0 214:255.0 215:251.0 216:0.0 217:15.0 218:0.0 219:6.0 220:238.0 221:0.0 222:15.0 223:9.0 224:0.0 225:2.0 226:5.0 227:243.0 228:255.0 229:239.0 230:255.0 231:254.0 232:243.0 233:244.0 234:255.0 235:253.0 236:255.0 237:0.0 238:22.0 239:3.0 240:9.0 241:255.0 242:0.0 243:16.0 244:0.0 245:12.0 246:0.0 247:255.0 248:249.0 249:255.0 250:254.0 251:251.0 252:247.0 253:255.0 254:246.0 255:252.0 256:255.0 257:5.0 258:0.0 259:6.0 260:0.0 261:255.0 262:3.0 263:4.0 264:0.0 265:0.0 266:4.0 267:2.0 268:255.0 269:251.0 270:246.0 271:255.0 272:255.0 273:242.0 274:255.0 275:255.0 276:246.0 277:252.0 278:7.0 279:0.0 280:2.0 281:238.0 282:251.0 283:0.0 284:20.0 285:5.0 286:0.0 287:0.0 288:250.0 289:255.0 290:255.0 291:230.0 292:255.0 293:252.0 294:244.0 295:255.0 296:255.0 297:255.0 298:0.0 299:10.0 300:3.0 301:255.0 302:252.0 303:255.0 304:0.0 305:9.0 306:4.0 307:0.0 308:8.0 309:0.0 310:255.0 311:255.0 312:251.0 313:255.0 314:255.0 315:255.0 316:247.0 317:255.0 318:0.0 319:8.0 320:0.0 321:254.0 322:255.0 323:255.0 324:252.0 325:7.0 326:0.0 327:0.0 328:8.0 329:3.0 330:5.0 331:249.0 332:255.0 333:254.0 334:255.0 335:251.0 336:255.0 337:2.0 338:0.0 339:1.0 340:0.0 341:251.0 342:255.0 343:248.0 344:243.0 345:249.0 346:24.0 347:0.0 348:0.0 349:0.0 350:6.0 351:0.0 352:255.0 353:242.0 354:255.0 355:255.0 356:6.0 357:0.0 358:5.0 359:10.0 360:252.0 361:255.0 362:250.0 363:252.0 364:255.0 365:254.0 366:243.0 367:11.0 368:11.0 369:6.0 370:27.0 371:0.0 372:0.0 373:255.0 374:255.0 375:0.0 376:13.0 377:10.0 378:1.0 379:244.0 380:255.0 381:244.0 382:255.0 383:255.0 384:241.0 385:255.0 386:247.0 387:238.0 388:0.0 389:0.0 390:0.0 391:8.0 392:0.0 393:7.0 394:0.0 395:16.0 396:0.0 397:0.0 398:255.0 399:255.0 400:255.0 
8.576777544933763E-8 1.332563139404482E-7 0.0 1.0920300323321152E-7 5.067706867015038E-8 5.8284792764807596E-8 6.301238883621655E-8 5.2521492393555974E-8 1.7392290945744716E-7 1:244.0 2:255.0 3:249.0 4:249.0 5:255.0 6:254.0 7:255.0 8:252.0 9:255.0 10:5.0 11:0.0 12:6.0 13:0.0 14:0.0 15:17.0 16:251.0 17:255.0 18:255.0 19:251.0 20:255.0 21:255.0 22:255.0 23:255.0 24:237.0 25:255.0 26:254.0 27:0.0 28:8.0 29:0.0 30:0.0 31:2.0 32:0.0 33:0.0 34:0.0 35:0.0 36:1.0 37:255.0 38:249.0 39:255.0 40:255.0 41:251.0 42:228.0 43:255.0 44:255.0 45:0.0 46:0.0 47:1.0 48:7.0 49:13.0 50:248.0 51:255.0 52:255.0 53:0.0 54:12.0 55:6.0 56:0.0 57:0.0 58:3.0 59:252.0 60:247.0 61:250.0 62:255.0 63:247.0 64:0.0 65:5.0 66:0.0 67:13.0 68:0.0 69:0.0 70:255.0 71:254.0 72:254.0 73:255.0 74:0.0 75:11.0 76:0.0 77:3.0 78:0.0 79:255.0 80:255.0 81:251.0 82:248.0 83:0.0 84:0.0 85:0.0 86:253.0 87:251.0 88:255.0 89:254.0 90:255.0 91:248.0 92:251.0 93:255.0 94:248.0 95:244.0 96:19.0 97:0.0 98:0.0 99:255.0 100:252.0 101:252.0 102:255.0 103:9.0 104:1.0 105:0.0 106:255.0 107:249.0 108:255.0 109:245.0 110:255.0 111:255.0 112:255.0 113:241.0 114:251.0 115:255.0 116:0.0 117:3.0 118:7.0 119:255.0 120:252.0 121:255.0 122:253.0 123:0.0 124:0.0 125:255.0 126:254.0 127:255.0 128:245.0 129:255.0 130:240.0 131:254.0 132:247.0 133:254.0 134:254.0 135:252.0 136:255.0 137:0.0 138:0.0 139:0.0 140:3.0 141:3.0 142:0.0 143:5.0 144:4.0 145:253.0 146:255.0 147:255.0 148:255.0 149:249.0 150:255.0 151:250.0 152:255.0 153:254.0 154:255.0 155:238.0 156:255.0 157:1.0 158:0.0 159:0.0 160:1.0 161:0.0 162:0.0 163:0.0 164:0.0 165:255.0 166:255.0 167:254.0 168:254.0 169:252.0 170:255.0 171:247.0 172:255.0 173:252.0 174:247.0 175:255.0 176:248.0 177:11.0 178:0.0 179:6.0 180:0.0 181:0.0 182:0.0 183:0.0 184:0.0 185:255.0 186:255.0 187:254.0 188:254.0 189:250.0 190:255.0 191:255.0 192:246.0 193:247.0 194:255.0 195:255.0 196:255.0 197:0.0 198:3.0 199:0.0 200:6.0 201:0.0 202:0.0 203:0.0 204:0.0 205:255.0 206:255.0 207:254.0 208:254.0 209:255.0 210:248.0 211:250.0 212:251.0 213:255.0 214:255.0 215:237.0 216:253.0 217:2.0 218:14.0 219:0.0 220:1.0 221:0.0 222:0.0 223:0.0 224:0.0 225:255.0 226:255.0 227:254.0 228:254.0 229:254.0 230:253.0 231:255.0 232:255.0 233:250.0 234:244.0 235:255.0 236:255.0 237:3.0 238:0.0 239:12.0 240:0.0 241:0.0 242:0.0 243:0.0 244:0.0 245:255.0 246:255.0 247:254.0 248:254.0 249:253.0 250:255.0 251:246.0 252:252.0 253:255.0 254:255.0 255:238.0 256:0.0 257:1.0 258:15.0 259:244.0 260:255.0 261:0.0 262:0.0 263:0.0 264:0.0 265:255.0 266:255.0 267:254.0 268:254.0 269:246.0 270:255.0 271:255.0 272:255.0 273:241.0 274:255.0 275:255.0 276:1.0 277:2.0 278:0.0 279:255.0 280:255.0 281:0.0 282:0.0 283:0.0 284:0.0 285:255.0 286:255.0 287:254.0 288:254.0 289:255.0 290:251.0 291:245.0 292:255.0 293:255.0 294:251.0 295:252.0 296:0.0 297:11.0 298:0.0 299:255.0 300:251.0 301:0.0 302:0.0 303:0.0 304:0.0 305:255.0 306:255.0 307:254.0 308:254.0 309:255.0 310:255.0 311:255.0 312:246.0 313:255.0 314:255.0 315:249.0 316:6.0 317:0.0 318:14.0 319:251.0 320:255.0 321:0.0 322:0.0 323:9.0 324:0.0 325:255.0 326:255.0 327:248.0 328:255.0 329:255.0 330:255.0 331:251.0 332:255.0 333:255.0 334:0.0 335:0.0 336:2.0 337:13.0 338:241.0 339:255.0 340:250.0 341:3.0 342:9.0 343:0.0 344:0.0 345:255.0 346:246.0 347:255.0 348:243.0 349:253.0 350:255.0 351:255.0 352:243.0 353:10.0 354:0.0 355:9.0 356:0.0 357:241.0 358:255.0 359:251.0 360:255.0 361:0.0 362:8.0 363:0.0 364:4.0 365:0.0 366:2.0 367:245.0 368:255.0 369:243.0 370:255.0 371:251.0 372:2.0 373:1.0 374:15.0 375:1.0 376:0.0 377:255.0 378:243.0 379:255.0 380:255.0 381:249.0 382:255.0 383:0.0 384:0.0 385:24.0 386:3.0 387:0.0 388:0.0 389:8.0 390:0.0 391:2.0 392:0.0 393:0.0 394:4.0 395:0.0 396:255.0 397:249.0 398:245.0 399:255.0 400:251.0 
0.0 0.0 0.0 0.0 0.0 0.0 0.0 6.103551411451827E-8 1.7213149829749865E-7 1:255.0 2:237.0 3:255.0 4:255.0 5:0.0 6:6.0 7:4.0 8:0.0 9:0.0 10:4.0 11:10.0 12:0.0 13:4.0 14:248.0 15:255.0 16:252.0 17:249.0 18:255.0 19:239.0 20:255.0 21:255.0 22:255.0 23:251.0 24:0.0 25:10.0 26:0.0 27:13.0 28:7.0 29:0.0 30:0.0 31:1.0 32:0.0 33:12.0 34:248.0 35:250.0 36:255.0 37:255.0 38:235.0 39:255.0 40:255.0 41:237.0 42:255.0 43:0.0 44:5.0 45:4.0 46:0.0 47:0.0 48:0.0 49:0.0 50:7.0 51:0.0 52:13.0 53:7.0 54:8.0 55:0.0 56:0.0 57:244.0 58:255.0 59:249.0 60:244.0 61:255.0 62:234.0 63:12.0 64:0.0 65:9.0 66:255.0 67:255.0 68:255.0 69:255.0 70:241.0 71:249.0 72:1.0 73:0.0 74:11.0 75:0.0 76:17.0 77:254.0 78:255.0 79:230.0 80:255.0 81:255.0 82:253.0 83:4.0 84:22.0 85:0.0 86:247.0 87:250.0 88:250.0 89:255.0 90:255.0 91:255.0 92:0.0 93:5.0 94:0.0 95:1.0 96:2.0 97:7.0 98:255.0 99:255.0 100:245.0 101:0.0 102:14.0 103:0.0 104:3.0 105:12.0 106:255.0 107:255.0 108:255.0 109:235.0 110:255.0 111:249.0 112:249.0 113:247.0 114:9.0 115:1.0 116:0.0 117:0.0 118:0.0 119:250.0 120:255.0 121:10.0 122:0.0 123:16.0 124:11.0 125:0.0 126:247.0 127:254.0 128:255.0 129:255.0 130:247.0 131:250.0 132:255.0 133:251.0 134:20.0 135:0.0 136:18.0 137:8.0 138:0.0 139:255.0 140:255.0 141:0.0 142:4.0 143:0.0 144:0.0 145:0.0 146:255.0 147:255.0 148:249.0 149:248.0 150:255.0 151:255.0 152:251.0 153:252.0 154:2.0 155:0.0 156:0.0 157:0.0 158:4.0 159:255.0 160:246.0 161:0.0 162:6.0 163:0.0 164:1.0 165:0.0 166:255.0 167:255.0 168:246.0 169:252.0 170:243.0 171:255.0 172:244.0 173:252.0 174:0.0 175:2.0 176:0.0 177:0.0 178:0.0 179:0.0 180:0.0 181:254.0 182:251.0 183:12.0 184:0.0 185:11.0 186:8.0 187:0.0 188:255.0 189:255.0 190:245.0 191:250.0 192:245.0 193:255.0 194:255.0 195:3.0 196:7.0 197:0.0 198:0.0 199:0.0 200:0.0 201:255.0 202:253.0 203:0.0 204:0.0 205:0.0 206:0.0 207:7.0 208:246.0 209:251.0 210:255.0 211:250.0 212:255.0 213:249.0 214:250.0 215:255.0 216:0.0 217:0.0 218:0.0 219:0.0 220:0.0 221:250.0 222:255.0 223:3.0 224:12.0 225:13.0 226:0.0 227:11.0 228:255.0 229:255.0 230:245.0 231:255.0 232:253.0 233:244.0 234:255.0 235:255.0 236:29.0 237:0.0 238:0.0 239:0.0 240:0.0 241:254.0 242:255.0 243:0.0 244:0.0 245:0.0 246:0.0 247:0.0 248:255.0 249:250.0 250:255.0 251:237.0 252:255.0 253:255.0 254:249.0 255:249.0 256:241.0 257:0.0 258:0.0 259:0.0 260:0.0 261:255.0 262:238.0 263:12.0 264:14.0 265:7.0 266:0.0 267:0.0 268:255.0 269:255.0 270:253.0 271:255.0 272:247.0 273:250.0 274:255.0 275:255.0 276:255.0 277:0.0 278:0.0 279:0.0 280:0.0 281:246.0 282:255.0 283:252.0 284:251.0 285:0.0 286:0.0 287:12.0 288:1.0 289:13.0 290:239.0 291:255.0 292:255.0 293:244.0 294:255.0 295:247.0 296:255.0 297:0.0 298:0.0 299:0.0 300:0.0 301:255.0 302:255.0 303:242.0 304:255.0 305:8.0 306:0.0 307:4.0 308:0.0 309:0.0 310:255.0 311:251.0 312:255.0 313:255.0 314:251.0 315:254.0 316:251.0 317:0.0 318:0.0 319:0.0 320:0.0 321:252.0 322:247.0 323:255.0 324:250.0 325:2.0 326:0.0 327:2.0 328:0.0 329:10.0 330:249.0 331:255.0 332:255.0 333:246.0 334:255.0 335:248.0 336:255.0 337:0.0 338:8.0 339:0.0 340:1.0 341:255.0 342:251.0 343:255.0 344:242.0 345:255.0 346:6.0 347:0.0 348:8.0 349:0.0 350:3.0 351:1.0 352:250.0 353:255.0 354:246.0 355:255.0 356:8.0 357:5.0 358:0.0 359:13.0 360:0.0 361:255.0 362:255.0 363:250.0 364:255.0 365:245.0 366:249.0 367:255.0 368:0.0 369:0.0 370:4.0 371:0.0 372:8.0 373:0.0 374:7.0 375:0.0 376:0.0 377:0.0 378:4.0 379:0.0 380:255.0 381:249.0 382:255.0 383:244.0 384:255.0 385:250.0 386:247.0 387:255.0 388:0.0 389:0.0 390:0.0 391:7.0 392:0.0 393:0.0 394:12.0 395:15.0 396:0.0 397:0.0 398:1.0 399:255.0 400:241.0 
2.197271128574428E-8 1.1415023593629062E-7 1.3719136565779758E-7 1.4107057314800273E-8 1.298642754403537E-7 1.5366030170210513E-7 1.3797015393310813E-7 6.879917264969993E-8 2.1694868689210213E-7 1:255.0 2:254.0 3:252.0 4:255.0 5:239.0 6:255.0 7:246.0 8:3.0 9:0.0 10:0.0 11:6.0 12:0.0 13:0.0 14:4.0 15:1.0 16:0.0 17:255.0 18:239.0 19:255.0 20:246.0 21:245.0 22:255.0 23:255.0 24:255.0 25:255.0 26:242.0 27:17.0 28:0.0 29:0.0 30:1.0 31:0.0 32:0.0 33:5.0 34:0.0 35:0.0 36:1.0 37:0.0 38:25.0 39:238.0 40:255.0 41:255.0 42:255.0 43:248.0 44:237.0 45:253.0 46:11.0 47:0.0 48:0.0 49:3.0 50:12.0 51:0.0 52:0.0 53:7.0 54:3.0 55:10.0 56:0.0 57:3.0 58:0.0 59:255.0 60:254.0 61:255.0 62:243.0 63:255.0 64:255.0 65:8.0 66:7.0 67:1.0 68:249.0 69:243.0 70:252.0 71:255.0 72:255.0 73:233.0 74:255.0 75:237.0 76:12.0 77:0.0 78:6.0 79:252.0 80:254.0 81:255.0 82:247.0 83:10.0 84:0.0 85:0.0 86:0.0 87:253.0 88:255.0 89:251.0 90:255.0 91:243.0 92:255.0 93:255.0 94:244.0 95:250.0 96:255.0 97:18.0 98:0.0 99:23.0 100:0.0 101:249.0 102:255.0 103:0.0 104:4.0 105:0.0 106:252.0 107:255.0 108:255.0 109:255.0 110:244.0 111:238.0 112:251.0 113:237.0 114:252.0 115:255.0 116:242.0 117:0.0 118:0.0 119:1.0 120:0.0 121:255.0 122:252.0 123:2.0 124:0.0 125:26.0 126:255.0 127:239.0 128:255.0 129:255.0 130:250.0 131:255.0 132:255.0 133:255.0 134:246.0 135:254.0 136:251.0 137:12.0 138:11.0 139:0.0 140:3.0 141:255.0 142:255.0 143:0.0 144:14.0 145:232.0 146:252.0 147:255.0 148:251.0 149:254.0 150:255.0 151:252.0 152:238.0 153:255.0 154:255.0 155:248.0 156:255.0 157:0.0 158:0.0 159:6.0 160:1.0 161:241.0 162:14.0 163:0.0 164:4.0 165:246.0 166:255.0 167:235.0 168:255.0 169:253.0 170:255.0 171:255.0 172:255.0 173:255.0 174:246.0 175:255.0 176:253.0 177:0.0 178:1.0 179:0.0 180:0.0 181:13.0 182:0.0 183:5.0 184:0.0 185:246.0 186:255.0 187:253.0 188:249.0 189:255.0 190:252.0 191:255.0 192:255.0 193:255.0 194:252.0 195:255.0 196:238.0 197:0.0 198:0.0 199:6.0 200:0.0 201:0.0 202:12.0 203:0.0 204:0.0 205:255.0 206:247.0 207:255.0 208:255.0 209:255.0 210:248.0 211:255.0 212:255.0 213:238.0 214:251.0 215:255.0 216:255.0 217:3.0 218:0.0 219:3.0 220:0.0 221:5.0 222:10.0 223:0.0 224:3.0 225:255.0 226:245.0 227:247.0 228:255.0 229:255.0 230:244.0 231:249.0 232:255.0 233:255.0 234:255.0 235:240.0 236:243.0 237:0.0 238:6.0 239:9.0 240:0.0 241:0.0 242:0.0 243:4.0 244:1.0 245:254.0 246:255.0 247:255.0 248:251.0 249:254.0 250:255.0 251:255.0 252:252.0 253:255.0 254:253.0 255:252.0 256:255.0 257:3.0 258:0.0 259:0.0 260:7.0 261:14.0 262:0.0 263:14.0 264:0.0 265:239.0 266:255.0 267:255.0 268:253.0 269:250.0 270:255.0 271:255.0 272:247.0 273:255.0 274:246.0 275:255.0 276:231.0 277:14.0 278:0.0 279:6.0 280:0.0 281:1.0 282:0.0 283:0.0 284:4.0 285:255.0 286:255.0 287:247.0 288:251.0 289:255.0 290:240.0 291:248.0 292:249.0 293:255.0 294:255.0 295:233.0 296:21.0 297:0.0 298:22.0 299:242.0 300:255.0 301:0.0 302:13.0 303:0.0 304:0.0 305:255.0 306:249.0 307:253.0 308:255.0 309:255.0 310:241.0 311:255.0 312:255.0 313:245.0 314:251.0 315:255.0 316:0.0 317:3.0 318:0.0 319:253.0 320:255.0 321:251.0 322:255.0 323:0.0 324:0.0 325:7.0 326:248.0 327:255.0 328:253.0 329:255.0 330:247.0 331:251.0 332:255.0 333:255.0 334:244.0 335:255.0 336:0.0 337:0.0 338:6.0 339:252.0 340:255.0 341:255.0 342:246.0 343:0.0 344:6.0 345:8.0 346:255.0 347:231.0 348:255.0 349:255.0 350:255.0 351:255.0 352:229.0 353:255.0 354:9.0 355:8.0 356:4.0 357:255.0 358:219.0 359:255.0 360:243.0 361:236.0 362:255.0 363:11.0 364:0.0 365:10.0 366:8.0 367:244.0 368:255.0 369:251.0 370:255.0 371:254.0 372:248.0 373:10.0 374:3.0 375:0.0 376:14.0 377:255.0 378:255.0 379:254.0 380:255.0 381:255.0 382:243.0 383:5.0 384:10.0 385:0.0 386:5.0 387:0.0 388:8.0 389:1.0 390:0.0 391:0.0 392:8.0 393:0.0 394:0.0 395:7.0 396:242.0 397:226.0 398:255.0 399:244.0 400:255.0 
8.009088728476332E-8 1.7459329162925795E-7 1.0407138106537142E-7 0.0 3.189316626389752E-8 1.4709561682673438E-7 4.315662680377532E-8 1.2213840818171364E-7 1.0465822781435236E-7 1:255.0 2:255.0 3:243.0 4:255.0 5:255.0 6:248.0 7:255.0 8:0.0 9:0.0 10:0.0 11:3.0 12:3.0 13:255.0 14:249.0 15:255.0 16:255.0 17:255.0 18:241.0 19:255.0 20:255.0 21:254.0 22:220.0 23:255.0 24:3.0 25:0.0 26:11.0 27:0.0 28:2.0 29:3.0 30:8.0 31:9.0 32:0.0 33:0.0 34:19.0 35:0.0 36:255.0 37:246.0 38:255.0 39:253.0 40:255.0 41:255.0 42:255.0 43:0.0 44:0.0 45:8.0 46:0.0 47:0.0 48:0.0 49:255.0 50:238.0 51:246.0 52:247.0 53:19.0 54:0.0 55:20.0 56:243.0 57:255.0 58:255.0 59:248.0 60:255.0 61:245.0 62:243.0 63:7.0 64:0.0 65:13.0 66:255.0 67:238.0 68:255.0 69:255.0 70:255.0 71:255.0 72:255.0 73:249.0 74:0.0 75:6.0 76:0.0 77:255.0 78:240.0 79:255.0 80:251.0 81:255.0 82:250.0 83:17.0 84:0.0 85:255.0 86:246.0 87:255.0 88:252.0 89:242.0 90:254.0 91:248.0 92:249.0 93:254.0 94:13.0 95:0.0 96:0.0 97:0.0 98:13.0 99:242.0 100:255.0 101:255.0 102:0.0 103:0.0 104:255.0 105:237.0 106:255.0 107:255.0 108:255.0 109:255.0 110:248.0 111:255.0 112:246.0 113:251.0 114:255.0 115:0.0 116:15.0 117:0.0 118:0.0 119:255.0 120:252.0 121:0.0 122:0.0 123:0.0 124:255.0 125:255.0 126:247.0 127:252.0 128:248.0 129:253.0 130:255.0 131:248.0 132:255.0 133:252.0 134:251.0 135:249.0 136:0.0 137:12.0 138:0.0 139:255.0 140:252.0 141:0.0 142:10.0 143:2.0 144:251.0 145:254.0 146:255.0 147:251.0 148:255.0 149:255.0 150:255.0 151:252.0 152:255.0 153:253.0 154:255.0 155:255.0 156:0.0 157:0.0 158:12.0 159:249.0 160:255.0 161:4.0 162:0.0 163:0.0 164:255.0 165:250.0 166:255.0 167:255.0 168:255.0 169:246.0 170:255.0 171:240.0 172:255.0 173:250.0 174:255.0 175:241.0 176:13.0 177:16.0 178:0.0 179:255.0 180:250.0 181:5.0 182:0.0 183:0.0 184:255.0 185:244.0 186:255.0 187:248.0 188:255.0 189:255.0 190:255.0 191:239.0 192:255.0 193:255.0 194:251.0 195:255.0 196:241.0 197:226.0 198:20.0 199:0.0 200:12.0 201:0.0 202:0.0 203:15.0 204:249.0 205:249.0 206:255.0 207:244.0 208:255.0 209:248.0 210:254.0 211:255.0 212:255.0 213:255.0 214:255.0 215:243.0 216:255.0 217:255.0 218:10.0 219:0.0 220:11.0 221:0.0 222:18.0 223:0.0 224:236.0 225:255.0 226:255.0 227:254.0 228:248.0 229:251.0 230:255.0 231:255.0 232:235.0 233:251.0 234:255.0 235:245.0 236:249.0 237:237.0 238:0.0 239:13.0 240:0.0 241:0.0 242:0.0 243:0.0 244:255.0 245:244.0 246:255.0 247:248.0 248:255.0 249:255.0 250:252.0 251:252.0 252:255.0 253:253.0 254:251.0 255:255.0 256:255.0 257:255.0 258:21.0 259:0.0 260:0.0 261:9.0 262:14.0 263:14.0 264:239.0 265:255.0 266:239.0 267:255.0 268:255.0 269:255.0 270:251.0 271:250.0 272:255.0 273:255.0 274:242.0 275:255.0 276:240.0 277:255.0 278:244.0 279:8.0 280:25.0 281:249.0 282:0.0 283:0.0 284:10.0 285:0.0 286:246.0 287:255.0 288:245.0 289:255.0 290:255.0 291:249.0 292:246.0 293:250.0 294:255.0 295:255.0 296:253.0 297:247.0 298:5.0 299:250.0 300:250.0 301:252.0 302:255.0 303:0.0 304:0.0 305:0.0 306:255.0 307:255.0 308:255.0 309:244.0 310:255.0 311:255.0 312:251.0 313:255.0 314:255.0 315:243.0 316:255.0 317:10.0 318:0.0 319:255.0 320:255.0 321:255.0 322:251.0 323:0.0 324:3.0 325:0.0 326:255.0 327:251.0 328:254.0 329:247.0 330:255.0 331:235.0 332:255.0 333:254.0 334:255.0 335:253.0 336:0.0 337:0.0 338:1.0 339:255.0 340:254.0 341:241.0 342:255.0 343:0.0 344:3.0 345:15.0 346:2.0 347:0.0 348:255.0 349:255.0 350:253.0 351:255.0 352:254.0 353:243.0 354:250.0 355:250.0 356:4.0 357:10.0 358:0.0 359:248.0 360:255.0 361:255.0 362:237.0 363:255.0 364:0.0 365:0.0 366:12.0 367:0.0 368:0.0 369:255.0 370:244.0 371:244.0 372:255.0 373:0.0 374:8.0 375:0.0 376:1.0 377:0.0 378:255.0 379:255.0 380:235.0 381:254.0 382:255.0 383:255.0 384:255.0 385:255.0 386:0.0 387:10.0 388:0.0 389:9.0 390:0.0 391:6.0 392:7.0 393:14.0 394:0.0 395:15.0 396:250.0 397:255.0 398:240.0 399:248.0 400:255.0 
1.3924355680900431E-8 6.0284841213203E-8 1.0258310944544757E-7 4.006171059545387E-9 8.52078177540011E-8 0.0 3.1566826925128027E-8 1.0712434472525375E-7 1.8308624266773577E-7 1:247.0 2:251.0 3:255.0 4:244.0 5:19.0 6:0.0 7:1.0 8:4.0 9:0.0 10:6.0 11:0.0 12:255.0 13:253.0 14:255.0 15:250.0 16:246.0 17:255.0 18:249.0 19:254.0 20:246.0 21:255.0 22:255.0 23:0.0 24:0.0 25:0.0 26:14.0 27:0.0 28:0.0 29:0.0 30:5.0 31:0.0 32:6.0 33:5.0 34:245.0 35:255.0 36:255.0 37:242.0 38:255.0 39:255.0 40:253.0 41:240.0 42:0.0 43:0.0 44:11.0 45:2.0 46:1.0 47:0.0 48:9.0 49:0.0 50:0.0 51:20.0 52:0.0 53:0.0 54:22.0 55:252.0 56:242.0 57:255.0 58:246.0 59:247.0 60:250.0 61:255.0 62:3.0 63:24.0 64:0.0 65:2.0 66:255.0 67:246.0 68:254.0 69:4.0 70:0.0 71:0.0 72:4.0 73:22.0 74:4.0 75:2.0 76:251.0 77:238.0 78:255.0 79:255.0 80:255.0 81:255.0 82:13.0 83:0.0 84:4.0 85:7.0 86:255.0 87:255.0 88:255.0 89:255.0 90:7.0 91:0.0 92:7.0 93:240.0 94:0.0 95:16.0 96:4.0 97:255.0 98:254.0 99:255.0 100:251.0 101:254.0 102:0.0 103:7.0 104:0.0 105:255.0 106:245.0 107:246.0 108:255.0 109:253.0 110:255.0 111:0.0 112:0.0 113:255.0 114:0.0 115:0.0 116:0.0 117:244.0 118:254.0 119:232.0 120:255.0 121:3.0 122:248.0 123:5.0 124:9.0 125:243.0 126:255.0 127:255.0 128:247.0 129:243.0 130:255.0 131:254.0 132:0.0 133:0.0 134:16.0 135:0.0 136:20.0 137:0.0 138:255.0 139:238.0 140:255.0 141:0.0 142:7.0 143:255.0 144:0.0 145:0.0 146:254.0 147:255.0 148:255.0 149:255.0 150:242.0 151:255.0 152:255.0 153:0.0 154:248.0 155:28.0 156:0.0 157:1.0 158:0.0 159:255.0 160:254.0 161:255.0 162:0.0 163:13.0 164:0.0 165:0.0 166:255.0 167:250.0 168:252.0 169:255.0 170:242.0 171:255.0 172:255.0 173:248.0 174:255.0 175:0.0 176:0.0 177:0.0 178:18.0 179:0.0 180:255.0 181:251.0 182:0.0 183:0.0 184:16.0 185:5.0 186:242.0 187:255.0 188:254.0 189:236.0 190:255.0 191:252.0 192:255.0 193:255.0 194:255.0 195:0.0 196:9.0 197:0.0 198:0.0 199:2.0 200:238.0 201:255.0 202:0.0 203:0.0 204:0.0 205:0.0 206:0.0 207:255.0 208:239.0 209:255.0 210:255.0 211:252.0 212:248.0 213:252.0 214:243.0 215:255.0 216:0.0 217:7.0 218:8.0 219:6.0 220:22.0 221:255.0 222:243.0 223:5.0 224:1.0 225:2.0 226:0.0 227:8.0 228:255.0 229:245.0 230:255.0 231:255.0 232:248.0 233:246.0 234:255.0 235:252.0 236:255.0 237:2.0 238:0.0 239:0.0 240:0.0 241:240.0 242:255.0 243:12.0 244:3.0 245:255.0 246:6.0 247:0.0 248:254.0 249:255.0 250:254.0 251:246.0 252:255.0 253:255.0 254:240.0 255:255.0 256:240.0 257:7.0 258:13.0 259:1.0 260:0.0 261:255.0 262:240.0 263:255.0 264:255.0 265:0.0 266:0.0 267:10.0 268:8.0 269:5.0 270:255.0 271:252.0 272:245.0 273:255.0 274:244.0 275:255.0 276:252.0 277:0.0 278:3.0 279:255.0 280:0.0 281:240.0 282:255.0 283:247.0 284:255.0 285:0.0 286:7.0 287:9.0 288:0.0 289:0.0 290:0.0 291:255.0 292:255.0 293:229.0 294:255.0 295:255.0 296:255.0 297:1.0 298:2.0 299:2.0 300:0.0 301:255.0 302:255.0 303:255.0 304:245.0 305:18.0 306:0.0 307:0.0 308:9.0 309:12.0 310:0.0 311:0.0 312:255.0 313:255.0 314:255.0 315:255.0 316:244.0 317:4.0 318:4.0 319:0.0 320:1.0 321:255.0 322:243.0 323:255.0 324:255.0 325:244.0 326:0.0 327:249.0 328:6.0 329:0.0 330:0.0 331:3.0 332:0.0 333:250.0 334:255.0 335:252.0 336:252.0 337:0.0 338:0.0 339:3.0 340:243.0 341:255.0 342:255.0 343:241.0 344:255.0 345:255.0 346:239.0 347:25.0 348:0.0 349:255.0 350:0.0 351:0.0 352:1.0 353:13.0 354:0.0 355:255.0 356:4.0 357:0.0 358:0.0 359:5.0 360:255.0 361:244.0 362:255.0 363:255.0 364:244.0 365:246.0 366:255.0 367:248.0 368:1.0 369:0.0 370:0.0 371:11.0 372:255.0 373:0.0 374:19.0 375:0.0 376:0.0 377:5.0 378:6.0 379:0.0 380:251.0 381:255.0 382:244.0 383:242.0 384:255.0 385:239.0 386:255.0 387:243.0 388:255.0 389:255.0 390:0.0 391:3.0 392:0.0 393:3.0 394:2.0 395:6.0 396:8.0 397:2.0 398:0.0 399:255.0 400:252.0 
0.0 0.0 0.0 0.0 0.0 0.0 0.0 6.923840584074721E-9 0.0 1:252.0 2:246.0 3:255.0 4:0.0 5:1.0 6:4.0 7:0.0 8:2.0 9:9.0 10:0.0 11:255.0 12:255.0 13:254.0 14:250.0 15:255.0 16:254.0 17:255.0 18:252.0 19:255.0 20:251.0 21:255.0 22:255.0 23:0.0 24:3.0 25:0.0 26:0.0 27:18.0 28:0.0 29:0.0 30:4.0 31:0.0 32:0.0 33:0.0 34:255.0 35:255.0 36:252.0 37:255.0 38:232.0 39:255.0 40:255.0 41:255.0 42:232.0 43:0.0 44:12.0 45:1.0 46:1.0 47:11.0 48:0.0 49:7.0 50:0.0 51:7.0 52:8.0 53:0.0 54:255.0 55:234.0 56:255.0 57:251.0 58:255.0 59:255.0 60:253.0 61:2.0 62:0.0 63:21.0 64:0.0 65:0.0 66:255.0 67:241.0 68:8.0 69:0.0 70:3.0 71:0.0 72:13.0 73:0.0 74:1.0 75:15.0 76:255.0 77:248.0 78:255.0 79:246.0 80:248.0 81:0.0 82:22.0 83:0.0 84:1.0 85:255.0 86:255.0 87:249.0 88:255.0 89:255.0 90:255.0 91:0.0 92:0.0 93:0.0 94:5.0 95:9.0 96:0.0 97:255.0 98:255.0 99:255.0 100:253.0 101:4.0 102:4.0 103:0.0 104:254.0 105:255.0 106:237.0 107:252.0 108:255.0 109:255.0 110:255.0 111:2.0 112:9.0 113:0.0 114:0.0 115:3.0 116:11.0 117:11.0 118:248.0 119:250.0 120:255.0 121:0.0 122:0.0 123:9.0 124:255.0 125:255.0 126:255.0 127:255.0 128:250.0 129:237.0 130:254.0 131:255.0 132:232.0 133:18.0 134:1.0 135:0.0 136:0.0 137:0.0 138:253.0 139:255.0 140:245.0 141:5.0 142:0.0 143:9.0 144:248.0 145:255.0 146:255.0 147:252.0 148:255.0 149:255.0 150:250.0 151:255.0 152:255.0 153:0.0 154:14.0 155:0.0 156:4.0 157:2.0 158:9.0 159:244.0 160:252.0 161:0.0 162:0.0 163:6.0 164:255.0 165:241.0 166:255.0 167:248.0 168:250.0 169:255.0 170:243.0 171:255.0 172:244.0 173:0.0 174:9.0 175:0.0 176:2.0 177:0.0 178:2.0 179:249.0 180:255.0 181:10.0 182:0.0 183:0.0 184:253.0 185:255.0 186:255.0 187:255.0 188:255.0 189:255.0 190:255.0 191:255.0 192:255.0 193:255.0 194:0.0 195:1.0 196:0.0 197:7.0 198:0.0 199:255.0 200:253.0 201:0.0 202:5.0 203:5.0 204:1.0 205:0.0 206:255.0 207:235.0 208:252.0 209:246.0 210:255.0 211:244.0 212:240.0 213:255.0 214:255.0 215:245.0 216:13.0 217:0.0 218:7.0 219:241.0 220:252.0 221:10.0 222:0.0 223:0.0 224:2.0 225:10.0 226:0.0 227:255.0 228:250.0 229:255.0 230:253.0 231:255.0 232:254.0 233:247.0 234:255.0 235:252.0 236:0.0 237:2.0 238:5.0 239:5.0 240:0.0 241:1.0 242:0.0 243:12.0 244:19.0 245:0.0 246:2.0 247:0.0 248:255.0 249:253.0 250:243.0 251:255.0 252:255.0 253:255.0 254:238.0 255:255.0 256:0.0 257:0.0 258:0.0 259:0.0 260:7.0 261:243.0 262:255.0 263:0.0 264:0.0 265:18.0 266:7.0 267:0.0 268:255.0 269:255.0 270:255.0 271:236.0 272:255.0 273:255.0 274:246.0 275:255.0 276:255.0 277:255.0 278:19.0 279:0.0 280:0.0 281:254.0 282:255.0 283:0.0 284:0.0 285:8.0 286:0.0 287:4.0 288:0.0 289:245.0 290:250.0 291:255.0 292:245.0 293:255.0 294:255.0 295:253.0 296:255.0 297:245.0 298:6.0 299:0.0 300:0.0 301:255.0 302:254.0 303:0.0 304:2.0 305:0.0 306:11.0 307:0.0 308:14.0 309:1.0 310:252.0 311:255.0 312:247.0 313:255.0 314:248.0 315:247.0 316:255.0 317:3.0 318:1.0 319:9.0 320:0.0 321:251.0 322:255.0 323:255.0 324:1.0 325:0.0 326:1.0 327:3.0 328:0.0 329:0.0 330:10.0 331:242.0 332:255.0 333:255.0 334:244.0 335:255.0 336:4.0 337:0.0 338:0.0 339:250.0 340:254.0 341:255.0 342:254.0 343:250.0 344:248.0 345:250.0 346:9.0 347:0.0 348:24.0 349:9.0 350:2.0 351:6.0 352:0.0 353:10.0 354:2.0 355:6.0 356:0.0 357:9.0 358:0.0 359:255.0 360:255.0 361:239.0 362:255.0 363:249.0 364:255.0 365:231.0 366:0.0 367:9.0 368:0.0 369:0.0 370:6.0 371:0.0 372:1.0 373:0.0 374:2.0 375:0.0 376:6.0 377:0.0 378:0.0 379:252.0 380:248.0 381:255.0 382:251.0 383:249.0 384:251.0 385:255.0 386:255.0 387:255.0 388:3.0 389:0.0 390:0.0 391:14.0 392:0.0 393:0.0 394:1.0 395:23.0 396:0.0 397:13.0 398:255.0 399:250.0 400:255.0 
0.0 0.0 0.0 0.0 0.0 1.4732541647680285E-8 0.0 4.423417257258925E-9 0.0 1:247.0 2:255.0 3:0.0 4:7.0 5:2.0 6:0.0 7:8.0 8:1.0 9:0.0 10:4.0 11:3.0 12:0.0 13:255.0 14:247.0 15:255.0 16:255.0 17:254.0 18:255.0 19:251.0 20:253.0 21:254.0 22:255.0 23:0.0 24:0.0 25:0.0 26:0.0 27:0.0 28:0.0 29:0.0 30:8.0 31:0.0 32:7.0 33:255.0 34:255.0 35:255.0 36:255.0 37:253.0 38:247.0 39:255.0 40:253.0 41:255.0 42:254.0 43:2.0 44:0.0 45:0.0 46:24.0 47:0.0 48:9.0 49:3.0 50:5.0 51:0.0 52:4.0 53:0.0 54:0.0 55:255.0 56:255.0 57:255.0 58:231.0 59:255.0 60:252.0 61:0.0 62:2.0 63:0.0 64:15.0 65:255.0 66:242.0 67:255.0 68:250.0 69:255.0 70:236.0 71:20.0 72:0.0 73:24.0 74:7.0 75:0.0 76:2.0 77:255.0 78:255.0 79:255.0 80:249.0 81:4.0 82:6.0 83:0.0 84:5.0 85:248.0 86:251.0 87:254.0 88:254.0 89:255.0 90:255.0 91:0.0 92:12.0 93:0.0 94:0.0 95:7.0 96:0.0 97:226.0 98:255.0 99:244.0 100:255.0 101:0.0 102:0.0 103:13.0 104:0.0 105:255.0 106:249.0 107:255.0 108:255.0 109:251.0 110:255.0 111:250.0 112:252.0 113:3.0 114:9.0 115:0.0 116:18.0 117:255.0 118:255.0 119:254.0 120:255.0 121:0.0 122:8.0 123:0.0 124:10.0 125:250.0 126:255.0 127:243.0 128:254.0 129:251.0 130:250.0 131:255.0 132:247.0 133:5.0 134:4.0 135:0.0 136:0.0 137:255.0 138:219.0 139:255.0 140:243.0 141:4.0 142:6.0 143:2.0 144:0.0 145:255.0 146:254.0 147:254.0 148:255.0 149:255.0 150:248.0 151:255.0 152:255.0 153:248.0 154:248.0 155:17.0 156:0.0 157:0.0 158:6.0 159:252.0 160:255.0 161:0.0 162:0.0 163:3.0 164:0.0 165:255.0 166:244.0 167:255.0 168:251.0 169:255.0 170:244.0 171:255.0 172:255.0 173:255.0 174:249.0 175:12.0 176:0.0 177:0.0 178:14.0 179:251.0 180:255.0 181:0.0 182:23.0 183:0.0 184:6.0 185:255.0 186:239.0 187:255.0 188:245.0 189:249.0 190:253.0 191:255.0 192:255.0 193:252.0 194:255.0 195:0.0 196:12.0 197:11.0 198:0.0 199:255.0 200:251.0 201:2.0 202:0.0 203:6.0 204:0.0 205:249.0 206:255.0 207:242.0 208:255.0 209:255.0 210:255.0 211:254.0 212:248.0 213:252.0 214:255.0 215:0.0 216:0.0 217:2.0 218:0.0 219:255.0 220:255.0 221:2.0 222:0.0 223:9.0 224:0.0 225:254.0 226:239.0 227:255.0 228:255.0 229:247.0 230:252.0 231:255.0 232:255.0 233:255.0 234:242.0 235:13.0 236:0.0 237:1.0 238:15.0 239:244.0 240:255.0 241:0.0 242:0.0 243:0.0 244:12.0 245:249.0 246:255.0 247:255.0 248:249.0 249:255.0 250:255.0 251:254.0 252:246.0 253:251.0 254:255.0 255:240.0 256:255.0 257:3.0 258:0.0 259:12.0 260:0.0 261:248.0 262:255.0 263:7.0 264:0.0 265:8.0 266:0.0 267:243.0 268:255.0 269:253.0 270:251.0 271:255.0 272:255.0 273:255.0 274:248.0 275:255.0 276:255.0 277:2.0 278:14.0 279:0.0 280:1.0 281:251.0 282:254.0 283:0.0 284:3.0 285:14.0 286:22.0 287:249.0 288:240.0 289:255.0 290:255.0 291:249.0 292:249.0 293:255.0 294:253.0 295:255.0 296:246.0 297:0.0 298:3.0 299:0.0 300:6.0 301:255.0 302:251.0 303:12.0 304:0.0 305:0.0 306:0.0 307:255.0 308:255.0 309:250.0 310:255.0 311:255.0 312:251.0 313:255.0 314:255.0 315:241.0 316:255.0 317:11.0 318:0.0 319:6.0 320:0.0 321:255.0 322:241.0 323:3.0 324:6.0 325:0.0 326:2.0 327:255.0 328:255.0 329:251.0 330:255.0 331:246.0 332:255.0 333:247.0 334:255.0 335:244.0 336:255.0 337:4.0 338:0.0 339:10.0 340:0.0 341:246.0 342:255.0 343:255.0 344:243.0 345:19.0 346:0.0 347:0.0 348:0.0 349:247.0 350:231.0 351:255.0 352:244.0 353:255.0 354:245.0 355:8.0 356:2.0 357:0.0 358:24.0 359:236.0 360:255.0 361:255.0 362:250.0 363:243.0 364:253.0 365:0.0 366:17.0 367:0.0 368:3.0 369:10.0 370:27.0 371:0.0 372:8.0 373:2.0 374:6.0 375:0.0 376:0.0 377:1.0 378:0.0 379:255.0 380:255.0 381:251.0 382:255.0 383:251.0 384:255.0 385:9.0 386:0.0 387:11.0 388:0.0 389:0.0 390:0.0 391:0.0 392:11.0 393:0.0 394:4.0 395:3.0 396:0.0 397:24.0 398:0.0 399:255.0 400:240.0 
0.0 0.0 3.7212856975142986E-8 9.418792543446995E-9 0.0 0.0 5.316236339329891E-8 2.694687909152887E-9 1.2486302050909856E-7 1:255.0 2:239.0 3:255.0 4:0.0 5:0.0 6:9.0 7:0.0 8:13.0 9:0.0 10:1.0 11:250.0 12:255.0 13:249.0 14:246.0 15:255.0 16:249.0 17:254.0 18:255.0 19:255.0 20:250.0 21:255.0 22:242.0 23:0.0 24:3.0 25:1.0 26:0.0 27:5.0 28:0.0 29:0.0 30:0.0 31:3.0 32:0.0 33:18.0 34:255.0 35:252.0 36:253.0 37:255.0 38:246.0 39:255.0 40:251.0 41:253.0 42:255.0 43:4.0 44:0.0 45:0.0 46:255.0 47:248.0 48:255.0 49:255.0 50:255.0 51:0.0 52:0.0 53:0.0 54:6.0 55:236.0 56:255.0 57:255.0 58:255.0 59:237.0 60:255.0 61:255.0 62:237.0 63:0.0 64:0.0 65:4.0 66:248.0 67:254.0 68:255.0 69:230.0 70:255.0 71:5.0 72:9.0 73:4.0 74:0.0 75:24.0 76:245.0 77:254.0 78:252.0 79:255.0 80:255.0 81:0.0 82:15.0 83:18.0 84:255.0 85:255.0 86:249.0 87:252.0 88:251.0 89:255.0 90:251.0 91:237.0 92:255.0 93:4.0 94:0.0 95:4.0 96:0.0 97:1.0 98:255.0 99:248.0 100:250.0 101:19.0 102:0.0 103:0.0 104:246.0 105:248.0 106:255.0 107:255.0 108:254.0 109:242.0 110:254.0 111:255.0 112:252.0 113:255.0 114:7.0 115:0.0 116:15.0 117:0.0 118:255.0 119:255.0 120:245.0 121:0.0 122:0.0 123:0.0 124:255.0 125:253.0 126:244.0 127:255.0 128:254.0 129:255.0 130:253.0 131:243.0 132:255.0 133:250.0 134:0.0 135:7.0 136:0.0 137:3.0 138:0.0 139:255.0 140:255.0 141:1.0 142:5.0 143:0.0 144:252.0 145:249.0 146:255.0 147:250.0 148:255.0 149:255.0 150:250.0 151:255.0 152:254.0 153:253.0 154:255.0 155:244.0 156:9.0 157:0.0 158:3.0 159:245.0 160:255.0 161:0.0 162:0.0 163:0.0 164:255.0 165:255.0 166:255.0 167:249.0 168:255.0 169:255.0 170:241.0 171:255.0 172:255.0 173:245.0 174:251.0 175:255.0 176:0.0 177:0.0 178:20.0 179:249.0 180:255.0 181:0.0 182:18.0 183:0.0 184:255.0 185:248.0 186:255.0 187:251.0 188:255.0 189:255.0 190:240.0 191:248.0 192:249.0 193:255.0 194:255.0 195:233.0 196:21.0 197:22.0 198:0.0 199:3.0 200:0.0 201:4.0 202:7.0 203:0.0 204:255.0 205:255.0 206:236.0 207:255.0 208:250.0 209:250.0 210:255.0 211:255.0 212:247.0 213:255.0 214:246.0 215:255.0 216:231.0 217:243.0 218:15.0 219:12.0 220:0.0 221:247.0 222:243.0 223:0.0 224:0.0 225:2.0 226:255.0 227:235.0 228:255.0 229:254.0 230:255.0 231:255.0 232:252.0 233:255.0 234:253.0 235:252.0 236:255.0 237:255.0 238:0.0 239:3.0 240:3.0 241:251.0 242:255.0 243:26.0 244:0.0 245:0.0 246:240.0 247:255.0 248:244.0 249:255.0 250:244.0 251:249.0 252:255.0 253:255.0 254:255.0 255:240.0 256:243.0 257:246.0 258:22.0 259:0.0 260:3.0 261:255.0 262:234.0 263:0.0 264:0.0 265:0.0 266:255.0 267:255.0 268:250.0 269:255.0 270:248.0 271:255.0 272:255.0 273:238.0 274:251.0 275:255.0 276:255.0 277:252.0 278:10.0 279:0.0 280:1.0 281:252.0 282:255.0 283:250.0 284:16.0 285:0.0 286:16.0 287:0.0 288:251.0 289:255.0 290:252.0 291:255.0 292:255.0 293:255.0 294:252.0 295:255.0 296:238.0 297:255.0 298:0.0 299:11.0 300:4.0 301:246.0 302:255.0 303:252.0 304:0.0 305:0.0 306:0.0 307:9.0 308:1.0 309:253.0 310:255.0 311:255.0 312:255.0 313:255.0 314:246.0 315:255.0 316:253.0 317:249.0 318:25.0 319:0.0 320:0.0 321:255.0 322:242.0 323:255.0 324:242.0 325:255.0 326:3.0 327:2.0 328:1.0 329:254.0 330:252.0 331:255.0 332:253.0 333:255.0 334:255.0 335:244.0 336:255.0 337:252.0 338:0.0 339:5.0 340:0.0 341:255.0 342:255.0 343:249.0 344:255.0 345:245.0 346:255.0 347:0.0 348:0.0 349:11.0 350:233.0 351:255.0 352:251.0 353:255.0 354:255.0 355:255.0 356:234.0 357:1.0 358:14.0 359:7.0 360:255.0 361:248.0 362:255.0 363:255.0 364:255.0 365:253.0 366:255.0 367:255.0 368:15.0 369:0.0 370:6.0 371:6.0 372:0.0 373:253.0 374:234.0 375:255.0 376:13.0 377:3.0 378:0.0 379:255.0 380:251.0 381:252.0 382:255.0 383:245.0 384:255.0 385:252.0 386:255.0 387:227.0 388:248.0 389:6.0 390:0.0 391:0.0 392:12.0 393:0.0 394:14.0 395:7.0 396:0.0 397:5.0 398:6.0 399:255.0 400:255.0 
1.1011803377968257E-7 1.475765470495345E-7 8.881920950923924E-8 3.919234303026251E-8 4.678962793609784E-8 0.0 1.364491582389282E-7 9.52582484716383E-8 5.24859919216267E-8 1:255.0 2:243.0 3:255.0 4:255.0 5:250.0 6:2.0 7:0.0 8:0.0 9:0.0 10:255.0 11:250.0 12:255.0 13:251.0 14:249.0 15:255.0 16:253.0 17:255.0 18:243.0 19:255.0 20:255.0 21:250.0 22:245.0 23:248.0 24:0.0 25:0.0 26:7.0 27:0.0 28:0.0 29:5.0 30:0.0 31:1.0 32:248.0 33:255.0 34:255.0 35:244.0 36:255.0 37:253.0 38:255.0 39:255.0 40:250.0 41:255.0 42:249.0 43:19.0 44:18.0 45:0.0 46:0.0 47:17.0 48:0.0 49:0.0 50:19.0 51:8.0 52:0.0 53:246.0 54:251.0 55:255.0 56:251.0 57:240.0 58:255.0 59:242.0 60:255.0 61:247.0 62:21.0 63:0.0 64:0.0 65:4.0 66:0.0 67:5.0 68:4.0 69:0.0 70:0.0 71:0.0 72:0.0 73:7.0 74:252.0 75:255.0 76:255.0 77:255.0 78:255.0 79:251.0 80:253.0 81:250.0 82:2.0 83:11.0 84:6.0 85:255.0 86:250.0 87:232.0 88:255.0 89:250.0 90:0.0 91:0.0 92:10.0 93:3.0 94:0.0 95:6.0 96:248.0 97:249.0 98:245.0 99:255.0 100:251.0 101:0.0 102:4.0 103:255.0 104:243.0 105:243.0 106:255.0 107:255.0 108:248.0 109:255.0 110:237.0 111:8.0 112:0.0 113:9.0 114:2.0 115:9.0 116:0.0 117:255.0 118:243.0 119:255.0 120:255.0 121:12.0 122:0.0 123:246.0 124:255.0 125:255.0 126:241.0 127:255.0 128:251.0 129:245.0 130:255.0 131:248.0 132:1.0 133:0.0 134:0.0 135:14.0 136:1.0 137:241.0 138:255.0 139:251.0 140:255.0 141:0.0 142:6.0 143:255.0 144:241.0 145:255.0 146:248.0 147:255.0 148:251.0 149:255.0 150:255.0 151:255.0 152:253.0 153:6.0 154:15.0 155:0.0 156:7.0 157:13.0 158:241.0 159:255.0 160:250.0 161:7.0 162:0.0 163:3.0 164:0.0 165:255.0 166:242.0 167:255.0 168:254.0 169:255.0 170:232.0 171:255.0 172:255.0 173:239.0 174:255.0 175:0.0 176:0.0 177:0.0 178:15.0 179:0.0 180:250.0 181:252.0 182:15.0 183:1.0 184:0.0 185:255.0 186:255.0 187:247.0 188:249.0 189:240.0 190:255.0 191:246.0 192:251.0 193:255.0 194:255.0 195:252.0 196:0.0 197:19.0 198:0.0 199:9.0 200:251.0 201:248.0 202:1.0 203:0.0 204:5.0 205:255.0 206:233.0 207:255.0 208:255.0 209:255.0 210:255.0 211:255.0 212:255.0 213:240.0 214:255.0 215:254.0 216:2.0 217:0.0 218:0.0 219:0.0 220:255.0 221:255.0 222:0.0 223:7.0 224:1.0 225:0.0 226:255.0 227:244.0 228:251.0 229:242.0 230:255.0 231:234.0 232:254.0 233:255.0 234:248.0 235:251.0 236:255.0 237:10.0 238:0.0 239:2.0 240:7.0 241:239.0 242:21.0 243:0.0 244:0.0 245:16.0 246:0.0 247:252.0 248:255.0 249:255.0 250:248.0 251:255.0 252:254.0 253:255.0 254:255.0 255:255.0 256:235.0 257:255.0 258:255.0 259:5.0 260:4.0 261:251.0 262:254.0 263:245.0 264:1.0 265:0.0 266:0.0 267:11.0 268:245.0 269:255.0 270:255.0 271:239.0 272:255.0 273:253.0 274:255.0 275:247.0 276:255.0 277:247.0 278:250.0 279:14.0 280:0.0 281:255.0 282:241.0 283:255.0 284:243.0 285:19.0 286:0.0 287:0.0 288:2.0 289:0.0 290:255.0 291:255.0 292:240.0 293:255.0 294:251.0 295:247.0 296:255.0 297:255.0 298:255.0 299:0.0 300:13.0 301:255.0 302:255.0 303:247.0 304:253.0 305:248.0 306:9.0 307:0.0 308:3.0 309:4.0 310:0.0 311:255.0 312:255.0 313:254.0 314:251.0 315:255.0 316:248.0 317:250.0 318:249.0 319:11.0 320:2.0 321:252.0 322:255.0 323:255.0 324:247.0 325:254.0 326:255.0 327:0.0 328:1.0 329:2.0 330:0.0 331:7.0 332:255.0 333:250.0 334:255.0 335:244.0 336:255.0 337:255.0 338:255.0 339:0.0 340:0.0 341:255.0 342:253.0 343:252.0 344:255.0 345:255.0 346:238.0 347:255.0 348:0.0 349:0.0 350:0.0 351:3.0 352:7.0 353:244.0 354:240.0 355:255.0 356:249.0 357:247.0 358:0.0 359:21.0 360:0.0 361:253.0 362:255.0 363:255.0 364:237.0 365:255.0 366:232.0 367:254.0 368:244.0 369:4.0 370:8.0 371:0.0 372:0.0 373:6.0 374:15.0 375:0.0 376:4.0 377:9.0 378:6.0 379:0.0 380:252.0 381:251.0 382:246.0 383:252.0 384:255.0 385:251.0 386:255.0 387:254.0 388:255.0 389:245.0 390:5.0 391:0.0 392:0.0 393:2.0 394:0.0 395:9.0 396:4.0 397:0.0 398:10.0 399:4.0 400:247.0 
0.0 0.0 0.0 0.0 6.55053909594162E-8 6.470786508245443E-8 0.0 0.0 0.0 1:250.0 2:255.0 3:255.0 4:245.0 5:255.0 6:255.0 7:250.0 8:251.0 9:0.0 10:254.0 11:255.0 12:255.0 13:247.0 14:254.0 15:255.0 16:255.0 17:255.0 18:252.0 19:255.0 20:251.0 21:255.0 22:255.0 23:227.0 24:255.0 25:255.0 26:0.0 27:0.0 28:7.0 29:2.0 30:9.0 31:0.0 32:2.0 33:15.0 34:0.0 35:239.0 36:255.0 37:255.0 38:232.0 39:255.0 40:255.0 41:242.0 42:255.0 43:255.0 44:0.0 45:0.0 46:0.0 47:6.0 48:8.0 49:0.0 50:0.0 51:17.0 52:0.0 53:0.0 54:20.0 55:0.0 56:255.0 57:251.0 58:255.0 59:255.0 60:253.0 61:255.0 62:238.0 63:251.0 64:13.0 65:0.0 66:5.0 67:6.0 68:0.0 69:7.0 70:0.0 71:0.0 72:13.0 73:0.0 74:4.0 75:13.0 76:243.0 77:248.0 78:255.0 79:246.0 80:248.0 81:243.0 82:255.0 83:0.0 84:0.0 85:6.0 86:2.0 87:255.0 88:251.0 89:255.0 90:247.0 91:255.0 92:0.0 93:12.0 94:0.0 95:0.0 96:4.0 97:255.0 98:255.0 99:255.0 100:253.0 101:255.0 102:1.0 103:0.0 104:0.0 105:0.0 106:255.0 107:250.0 108:255.0 109:249.0 110:255.0 111:250.0 112:255.0 113:0.0 114:4.0 115:8.0 116:4.0 117:11.0 118:248.0 119:250.0 120:255.0 121:0.0 122:21.0 123:0.0 124:0.0 125:19.0 126:255.0 127:251.0 128:239.0 129:246.0 130:255.0 131:239.0 132:255.0 133:6.0 134:0.0 135:3.0 136:0.0 137:0.0 138:253.0 139:255.0 140:245.0 141:11.0 142:0.0 143:2.0 144:2.0 145:0.0 146:250.0 147:255.0 148:255.0 149:255.0 150:255.0 151:255.0 152:245.0 153:255.0 154:251.0 155:0.0 156:2.0 157:2.0 158:9.0 159:244.0 160:252.0 161:0.0 162:0.0 163:11.0 164:9.0 165:0.0 166:255.0 167:248.0 168:255.0 169:250.0 170:255.0 171:254.0 172:253.0 173:255.0 174:245.0 175:6.0 176:0.0 177:0.0 178:5.0 179:255.0 180:244.0 181:11.0 182:0.0 183:3.0 184:0.0 185:4.0 186:255.0 187:255.0 188:255.0 189:253.0 190:255.0 191:244.0 192:255.0 193:252.0 194:255.0 195:0.0 196:5.0 197:7.0 198:0.0 199:254.0 200:247.0 201:0.0 202:20.0 203:0.0 204:12.0 205:0.0 206:255.0 207:249.0 208:239.0 209:255.0 210:246.0 211:255.0 212:255.0 213:255.0 214:253.0 215:0.0 216:4.0 217:0.0 218:0.0 219:13.0 220:255.0 221:255.0 222:235.0 223:0.0 224:4.0 225:3.0 226:5.0 227:255.0 228:255.0 229:255.0 230:255.0 231:255.0 232:255.0 233:237.0 234:255.0 235:255.0 236:0.0 237:9.0 238:0.0 239:5.0 240:8.0 241:255.0 242:255.0 243:21.0 244:0.0 245:5.0 246:0.0 247:255.0 248:251.0 249:255.0 250:240.0 251:255.0 252:255.0 253:255.0 254:250.0 255:255.0 256:9.0 257:0.0 258:6.0 259:0.0 260:3.0 261:250.0 262:249.0 263:0.0 264:4.0 265:0.0 266:10.0 267:232.0 268:255.0 269:255.0 270:255.0 271:237.0 272:248.0 273:250.0 274:255.0 275:255.0 276:0.0 277:8.0 278:0.0 279:0.0 280:0.0 281:255.0 282:255.0 283:224.0 284:11.0 285:0.0 286:3.0 287:19.0 288:0.0 289:240.0 290:254.0 291:255.0 292:255.0 293:247.0 294:255.0 295:243.0 296:255.0 297:255.0 298:0.0 299:9.0 300:8.0 301:255.0 302:254.0 303:255.0 304:11.0 305:0.0 306:6.0 307:0.0 308:3.0 309:255.0 310:255.0 311:244.0 312:255.0 313:249.0 314:250.0 315:255.0 316:255.0 317:0.0 318:9.0 319:0.0 320:0.0 321:255.0 322:255.0 323:255.0 324:255.0 325:0.0 326:0.0 327:16.0 328:0.0 329:6.0 330:255.0 331:255.0 332:255.0 333:247.0 334:255.0 335:249.0 336:0.0 337:1.0 338:7.0 339:0.0 340:255.0 341:255.0 342:252.0 343:245.0 344:254.0 345:254.0 346:0.0 347:0.0 348:5.0 349:0.0 350:0.0 351:255.0 352:253.0 353:255.0 354:255.0 355:255.0 356:0.0 357:0.0 358:0.0 359:255.0 360:247.0 361:241.0 362:255.0 363:255.0 364:253.0 365:255.0 366:15.0 367:0.0 368:9.0 369:18.0 370:0.0 371:4.0 372:250.0 373:251.0 374:244.0 375:8.0 376:0.0 377:9.0 378:0.0 379:255.0 380:255.0 381:255.0 382:254.0 383:238.0 384:255.0 385:248.0 386:243.0 387:30.0 388:0.0 389:0.0 390:14.0 391:0.0 392:3.0 393:4.0 394:0.0 395:15.0 396:0.0 397:0.0 398:255.0 399:255.0 400:247.0 
0.0 0.0 0.0 3.5716051125724636E-9 2.202391785174701E-8 0.0 0.0 6.239672839851154E-8 4.7903114427401144E-8 1:255.0 2:240.0 3:255.0 4:255.0 5:252.0 6:251.0 7:9.0 8:1.0 9:255.0 10:248.0 11:252.0 12:255.0 13:253.0 14:255.0 15:255.0 16:248.0 17:255.0 18:249.0 19:254.0 20:246.0 21:249.0 22:255.0 23:243.0 24:255.0 25:2.0 26:9.0 27:0.0 28:0.0 29:0.0 30:11.0 31:6.0 32:255.0 33:253.0 34:250.0 35:255.0 36:255.0 37:242.0 38:255.0 39:255.0 40:253.0 41:255.0 42:238.0 43:0.0 44:6.0 45:0.0 46:19.0 47:0.0 48:7.0 49:12.0 50:14.0 51:0.0 52:0.0 53:3.0 54:255.0 55:243.0 56:250.0 57:255.0 58:246.0 59:247.0 60:250.0 61:247.0 62:6.0 63:12.0 64:4.0 65:0.0 66:0.0 67:13.0 68:0.0 69:0.0 70:4.0 71:0.0 72:0.0 73:0.0 74:0.0 75:255.0 76:255.0 77:238.0 78:255.0 79:255.0 80:255.0 81:255.0 82:0.0 83:3.0 84:6.0 85:0.0 86:255.0 87:255.0 88:255.0 89:0.0 90:1.0 91:9.0 92:0.0 93:13.0 94:2.0 95:11.0 96:244.0 97:255.0 98:254.0 99:255.0 100:251.0 101:249.0 102:19.0 103:0.0 104:0.0 105:0.0 106:253.0 107:245.0 108:248.0 109:252.0 110:3.0 111:0.0 112:0.0 113:0.0 114:2.0 115:0.0 116:5.0 117:244.0 118:254.0 119:232.0 120:255.0 121:248.0 122:2.0 123:0.0 124:3.0 125:255.0 126:255.0 127:255.0 128:253.0 129:255.0 130:249.0 131:4.0 132:8.0 133:9.0 134:0.0 135:16.0 136:0.0 137:0.0 138:255.0 139:238.0 140:255.0 141:4.0 142:4.0 143:0.0 144:8.0 145:243.0 146:255.0 147:246.0 148:255.0 149:250.0 150:255.0 151:250.0 152:255.0 153:4.0 154:0.0 155:0.0 156:1.0 157:1.0 158:0.0 159:255.0 160:254.0 161:4.0 162:0.0 163:5.0 164:0.0 165:250.0 166:252.0 167:255.0 168:254.0 169:255.0 170:248.0 171:255.0 172:255.0 173:250.0 174:0.0 175:8.0 176:4.0 177:2.0 178:0.0 179:255.0 180:251.0 181:4.0 182:0.0 183:10.0 184:4.0 185:0.0 186:255.0 187:255.0 188:254.0 189:253.0 190:252.0 191:255.0 192:255.0 193:249.0 194:255.0 195:2.0 196:0.0 197:1.0 198:0.0 199:0.0 200:255.0 201:248.0 202:12.0 203:0.0 204:1.0 205:0.0 206:254.0 207:240.0 208:255.0 209:255.0 210:244.0 211:255.0 212:247.0 213:255.0 214:255.0 215:8.0 216:0.0 217:2.0 218:7.0 219:0.0 220:255.0 221:254.0 222:0.0 223:0.0 224:19.0 225:0.0 226:14.0 227:255.0 228:250.0 229:245.0 230:255.0 231:236.0 232:255.0 233:236.0 234:255.0 235:254.0 236:0.0 237:6.0 238:0.0 239:6.0 240:0.0 241:255.0 242:255.0 243:2.0 244:0.0 245:6.0 246:0.0 247:10.0 248:255.0 249:255.0 250:247.0 251:249.0 252:255.0 253:255.0 254:246.0 255:255.0 256:245.0 257:0.0 258:9.0 259:3.0 260:0.0 261:242.0 262:255.0 263:3.0 264:3.0 265:2.0 266:13.0 267:0.0 268:3.0 269:234.0 270:255.0 271:255.0 272:218.0 273:249.0 274:255.0 275:246.0 276:255.0 277:0.0 278:10.0 279:0.0 280:2.0 281:255.0 282:255.0 283:235.0 284:0.0 285:11.0 286:0.0 287:22.0 288:0.0 289:14.0 290:255.0 291:241.0 292:255.0 293:255.0 294:251.0 295:247.0 296:247.0 297:0.0 298:0.0 299:17.0 300:0.0 301:255.0 302:252.0 303:255.0 304:255.0 305:0.0 306:0.0 307:0.0 308:4.0 309:0.0 310:0.0 311:255.0 312:247.0 313:237.0 314:255.0 315:255.0 316:255.0 317:2.0 318:0.0 319:5.0 320:0.0 321:255.0 322:242.0 323:255.0 324:242.0 325:255.0 326:3.0 327:2.0 328:1.0 329:10.0 330:3.0 331:0.0 332:4.0 333:255.0 334:248.0 335:255.0 336:0.0 337:1.0 338:3.0 339:0.0 340:249.0 341:255.0 342:255.0 343:249.0 344:255.0 345:245.0 346:255.0 347:0.0 348:0.0 349:0.0 350:7.0 351:0.0 352:1.0 353:5.0 354:0.0 355:17.0 356:0.0 357:0.0 358:1.0 359:18.0 360:245.0 361:248.0 362:255.0 363:255.0 364:255.0 365:253.0 366:255.0 367:255.0 368:15.0 369:2.0 370:0.0 371:9.0 372:8.0 373:0.0 374:0.0 375:0.0 376:2.0 377:8.0 378:0.0 379:242.0 380:250.0 381:252.0 382:255.0 383:245.0 384:255.0 385:252.0 386:255.0 387:227.0 388:248.0 389:0.0 390:0.0 391:15.0 392:0.0 393:6.0 394:9.0 395:12.0 396:0.0 397:0.0 398:14.0 399:255.0 400:255.0 
0.0 0.0 0.0 2.225079451543212E-8 4.34350516250863E-9 4.0008691610291335E-9 8.851064451107358E-8 2.9265455395541E-8 0.0 1:255.0 2:245.0 3:255.0 4:255.0 5:255.0 6:253.0 7:254.0 8:247.0 9:4.0 10:0.0 11:16.0 12:0.0 13:1.0 14:0.0 15:4.0 16:255.0 17:254.0 18:255.0 19:253.0 20:248.0 21:250.0 22:255.0 23:246.0 24:247.0 25:255.0 26:16.0 27:0.0 28:0.0 29:9.0 30:0.0 31:0.0 32:0.0 33:17.0 34:6.0 35:10.0 36:0.0 37:5.0 38:255.0 39:255.0 40:250.0 41:255.0 42:255.0 43:255.0 44:250.0 45:2.0 46:0.0 47:0.0 48:19.0 49:2.0 50:0.0 51:0.0 52:0.0 53:0.0 54:0.0 55:0.0 56:14.0 57:0.0 58:248.0 59:255.0 60:252.0 61:247.0 62:249.0 63:255.0 64:0.0 65:0.0 66:4.0 67:17.0 68:0.0 69:250.0 70:255.0 71:255.0 72:240.0 73:255.0 74:255.0 75:0.0 76:0.0 77:3.0 78:0.0 79:255.0 80:242.0 81:255.0 82:255.0 83:250.0 84:8.0 85:14.0 86:0.0 87:255.0 88:249.0 89:255.0 90:241.0 91:253.0 92:255.0 93:255.0 94:241.0 95:0.0 96:5.0 97:4.0 98:11.0 99:0.0 100:7.0 101:255.0 102:239.0 103:0.0 104:11.0 105:0.0 106:20.0 107:255.0 108:247.0 109:255.0 110:255.0 111:253.0 112:251.0 113:243.0 114:255.0 115:249.0 116:2.0 117:4.0 118:0.0 119:16.0 120:0.0 121:255.0 122:255.0 123:12.0 124:0.0 125:2.0 126:0.0 127:241.0 128:255.0 129:255.0 130:251.0 131:250.0 132:255.0 133:250.0 134:233.0 135:255.0 136:0.0 137:3.0 138:0.0 139:0.0 140:11.0 141:251.0 142:255.0 143:0.0 144:0.0 145:2.0 146:4.0 147:255.0 148:247.0 149:251.0 150:252.0 151:255.0 152:242.0 153:255.0 154:255.0 155:237.0 156:5.0 157:0.0 158:3.0 159:0.0 160:0.0 161:255.0 162:254.0 163:0.0 164:0.0 165:8.0 166:255.0 167:255.0 168:250.0 169:255.0 170:254.0 171:255.0 172:255.0 173:253.0 174:255.0 175:252.0 176:1.0 177:0.0 178:11.0 179:0.0 180:0.0 181:240.0 182:255.0 183:14.0 184:0.0 185:14.0 186:236.0 187:255.0 188:255.0 189:255.0 190:254.0 191:255.0 192:255.0 193:253.0 194:255.0 195:252.0 196:1.0 197:0.0 198:0.0 199:11.0 200:0.0 201:255.0 202:0.0 203:0.0 204:11.0 205:0.0 206:255.0 207:244.0 208:255.0 209:255.0 210:254.0 211:255.0 212:255.0 213:253.0 214:255.0 215:252.0 216:1.0 217:5.0 218:0.0 219:12.0 220:0.0 221:0.0 222:0.0 223:14.0 224:0.0 225:5.0 226:250.0 227:255.0 228:250.0 229:255.0 230:254.0 231:255.0 232:255.0 233:253.0 234:255.0 235:252.0 236:1.0 237:12.0 238:0.0 239:0.0 240:0.0 241:21.0 242:0.0 243:2.0 244:0.0 245:9.0 246:243.0 247:250.0 248:255.0 249:255.0 250:254.0 251:255.0 252:255.0 253:253.0 254:255.0 255:252.0 256:1.0 257:0.0 258:13.0 259:0.0 260:11.0 261:247.0 262:1.0 263:0.0 264:2.0 265:6.0 266:0.0 267:255.0 268:255.0 269:255.0 270:254.0 271:255.0 272:255.0 273:253.0 274:255.0 275:252.0 276:1.0 277:1.0 278:13.0 279:0.0 280:0.0 281:252.0 282:255.0 283:0.0 284:2.0 285:4.0 286:15.0 287:242.0 288:255.0 289:255.0 290:254.0 291:255.0 292:255.0 293:253.0 294:255.0 295:252.0 296:1.0 297:7.0 298:0.0 299:25.0 300:0.0 301:251.0 302:255.0 303:0.0 304:3.0 305:0.0 306:0.0 307:255.0 308:249.0 309:255.0 310:254.0 311:255.0 312:255.0 313:253.0 314:255.0 315:252.0 316:1.0 317:0.0 318:5.0 319:251.0 320:255.0 321:255.0 322:247.0 323:4.0 324:3.0 325:1.0 326:0.0 327:255.0 328:254.0 329:255.0 330:255.0 331:255.0 332:255.0 333:248.0 334:255.0 335:0.0 336:9.0 337:0.0 338:3.0 339:255.0 340:249.0 341:253.0 342:255.0 343:5.0 344:0.0 345:0.0 346:26.0 347:0.0 348:250.0 349:255.0 350:253.0 351:249.0 352:253.0 353:251.0 354:255.0 355:0.0 356:0.0 357:3.0 358:251.0 359:255.0 360:251.0 361:255.0 362:255.0 363:0.0 364:2.0 365:2.0 366:0.0 367:0.0 368:11.0 369:247.0 370:248.0 371:255.0 372:255.0 373:255.0 374:236.0 375:29.0 376:0.0 377:0.0 378:255.0 379:242.0 380:251.0 381:246.0 382:255.0 383:250.0 384:5.0 385:7.0 386:0.0 387:13.0 388:0.0 389:14.0 390:4.0 391:0.0 392:0.0 393:0.0 394:18.0 395:0.0 396:0.0 397:12.0 398:226.0 399:255.0 400:255.0 
0.0 0.0 0.0 0.0 0.0 0.0 0.0 3.887553813553203E-9 2.8996441927148303E-8 1:255.0 2:248.0 3:255.0 4:255.0 5:0.0 6:9.0 7:0.0 8:0.0 9:4.0 10:6.0 11:0.0 12:8.0 13:0.0 14:0.0 15:255.0 16:252.0 17:250.0 18:255.0 19:246.0 20:255.0 21:243.0 22:255.0 23:246.0 24:255.0 25:0.0 26:0.0 27:9.0 28:3.0 29:5.0 30:0.0 31:13.0 32:5.0 33:0.0 34:11.0 35:246.0 36:255.0 37:255.0 38:253.0 39:255.0 40:255.0 41:255.0 42:245.0 43:2.0 44:0.0 45:4.0 46:0.0 47:8.0 48:0.0 49:0.0 50:0.0 51:0.0 52:10.0 53:0.0 54:0.0 55:13.0 56:0.0 57:255.0 58:219.0 59:255.0 60:245.0 61:0.0 62:0.0 63:3.0 64:24.0 65:0.0 66:0.0 67:255.0 68:249.0 69:255.0 70:255.0 71:255.0 72:247.0 73:0.0 74:0.0 75:0.0 76:1.0 77:3.0 78:17.0 79:242.0 80:255.0 81:12.0 82:0.0 83:2.0 84:0.0 85:2.0 86:0.0 87:255.0 88:255.0 89:243.0 90:255.0 91:241.0 92:255.0 93:14.0 94:18.0 95:0.0 96:2.0 97:0.0 98:0.0 99:255.0 100:253.0 101:0.0 102:3.0 103:10.0 104:0.0 105:7.0 106:3.0 107:240.0 108:255.0 109:255.0 110:243.0 111:254.0 112:255.0 113:0.0 114:0.0 115:25.0 116:0.0 117:0.0 118:0.0 119:255.0 120:252.0 121:8.0 122:1.0 123:0.0 124:0.0 125:2.0 126:7.0 127:255.0 128:253.0 129:249.0 130:255.0 131:255.0 132:251.0 133:13.0 134:0.0 135:2.0 136:6.0 137:3.0 138:0.0 139:255.0 140:253.0 141:0.0 142:0.0 143:0.0 144:0.0 145:14.0 146:0.0 147:255.0 148:252.0 149:255.0 150:255.0 151:253.0 152:251.0 153:0.0 154:12.0 155:0.0 156:4.0 157:0.0 158:0.0 159:255.0 160:249.0 161:0.0 162:2.0 163:0.0 164:4.0 165:0.0 166:0.0 167:255.0 168:254.0 169:255.0 170:251.0 171:255.0 172:253.0 173:251.0 174:255.0 175:0.0 176:0.0 177:3.0 178:0.0 179:3.0 180:1.0 181:0.0 182:2.0 183:0.0 184:4.0 185:0.0 186:0.0 187:255.0 188:254.0 189:252.0 190:242.0 191:253.0 192:255.0 193:252.0 194:255.0 195:15.0 196:0.0 197:1.0 198:1.0 199:3.0 200:1.0 201:0.0 202:2.0 203:0.0 204:4.0 205:0.0 206:0.0 207:255.0 208:254.0 209:253.0 210:255.0 211:255.0 212:249.0 213:254.0 214:240.0 215:0.0 216:2.0 217:0.0 218:1.0 219:0.0 220:0.0 221:0.0 222:2.0 223:0.0 224:4.0 225:0.0 226:0.0 227:255.0 228:254.0 229:255.0 230:250.0 231:249.0 232:254.0 233:255.0 234:255.0 235:0.0 236:0.0 237:7.0 238:0.0 239:3.0 240:1.0 241:0.0 242:2.0 243:0.0 244:4.0 245:0.0 246:0.0 247:255.0 248:254.0 249:255.0 250:232.0 251:255.0 252:255.0 253:231.0 254:251.0 255:2.0 256:0.0 257:0.0 258:0.0 259:18.0 260:0.0 261:0.0 262:2.0 263:0.0 264:4.0 265:0.0 266:0.0 267:255.0 268:254.0 269:255.0 270:255.0 271:255.0 272:252.0 273:255.0 274:255.0 275:0.0 276:9.0 277:0.0 278:29.0 279:236.0 280:255.0 281:0.0 282:2.0 283:0.0 284:4.0 285:0.0 286:0.0 287:255.0 288:254.0 289:247.0 290:255.0 291:246.0 292:255.0 293:252.0 294:237.0 295:6.0 296:0.0 297:0.0 298:0.0 299:255.0 300:251.0 301:0.0 302:2.0 303:0.0 304:4.0 305:0.0 306:0.0 307:255.0 308:254.0 309:255.0 310:244.0 311:255.0 312:238.0 313:8.0 314:0.0 315:0.0 316:6.0 317:9.0 318:0.0 319:255.0 320:248.0 321:3.0 322:4.0 323:0.0 324:10.0 325:0.0 326:0.0 327:255.0 328:255.0 329:255.0 330:249.0 331:248.0 332:255.0 333:0.0 334:7.0 335:5.0 336:0.0 337:4.0 338:0.0 339:254.0 340:255.0 341:255.0 342:246.0 343:18.0 344:0.0 345:8.0 346:4.0 347:0.0 348:0.0 349:251.0 350:255.0 351:255.0 352:234.0 353:21.0 354:0.0 355:0.0 356:5.0 357:0.0 358:19.0 359:240.0 360:255.0 361:250.0 362:255.0 363:251.0 364:255.0 365:1.0 366:0.0 367:8.0 368:0.0 369:0.0 370:0.0 371:1.0 372:2.0 373:0.0 374:0.0 375:1.0 376:0.0 377:255.0 378:237.0 379:255.0 380:254.0 381:255.0 382:255.0 383:255.0 384:245.0 385:0.0 386:0.0 387:0.0 388:2.0 389:0.0 390:0.0 391:2.0 392:0.0 393:19.0 394:2.0 395:5.0 396:4.0 397:255.0 398:250.0 399:251.0 400:255.0 
5.568861831770568E-8 1.5723135050818648E-7 1.2353351126883785E-7 3.464932240305981E-8 1.516034882380153E-7 1.2419480245807574E-7 3.7175044866034174E-8 6.740670305319631E-8 1.4661734687486556E-7 1:253.0 2:252.0 3:255.0 4:255.0 5:255.0 6:0.0 7:6.0 8:0.0 9:0.0 10:0.0 11:255.0 12:233.0 13:255.0 14:255.0 15:255.0 16:252.0 17:255.0 18:249.0 19:254.0 20:246.0 21:255.0 22:255.0 23:240.0 24:252.0 25:4.0 26:0.0 27:12.0 28:0.0 29:5.0 30:11.0 31:0.0 32:255.0 33:255.0 34:244.0 35:255.0 36:255.0 37:242.0 38:255.0 39:255.0 40:253.0 41:251.0 42:244.0 43:255.0 44:2.0 45:10.0 46:0.0 47:0.0 48:0.0 49:0.0 50:7.0 51:3.0 52:0.0 53:255.0 54:255.0 55:245.0 56:255.0 57:255.0 58:246.0 59:247.0 60:250.0 61:255.0 62:247.0 63:0.0 64:0.0 65:17.0 66:240.0 67:254.0 68:255.0 69:255.0 70:243.0 71:8.0 72:0.0 73:0.0 74:0.0 75:3.0 76:255.0 77:238.0 78:255.0 79:255.0 80:255.0 81:255.0 82:255.0 83:8.0 84:0.0 85:243.0 86:255.0 87:251.0 88:241.0 89:236.0 90:251.0 91:254.0 92:0.0 93:1.0 94:12.0 95:0.0 96:255.0 97:255.0 98:254.0 99:255.0 100:251.0 101:227.0 102:4.0 103:3.0 104:240.0 105:255.0 106:246.0 107:247.0 108:255.0 109:255.0 110:251.0 111:255.0 112:255.0 113:0.0 114:1.0 115:0.0 116:253.0 117:244.0 118:254.0 119:232.0 120:255.0 121:9.0 122:6.0 123:0.0 124:255.0 125:246.0 126:254.0 127:255.0 128:249.0 129:255.0 130:229.0 131:255.0 132:246.0 133:255.0 134:0.0 135:11.0 136:0.0 137:0.0 138:255.0 139:238.0 140:255.0 141:0.0 142:2.0 143:0.0 144:253.0 145:253.0 146:255.0 147:254.0 148:254.0 149:251.0 150:255.0 151:240.0 152:248.0 153:255.0 154:0.0 155:0.0 156:2.0 157:1.0 158:0.0 159:255.0 160:254.0 161:3.0 162:0.0 163:6.0 164:255.0 165:250.0 166:247.0 167:255.0 168:251.0 169:252.0 170:245.0 171:255.0 172:255.0 173:252.0 174:244.0 175:9.0 176:2.0 177:5.0 178:0.0 179:255.0 180:254.0 181:242.0 182:255.0 183:0.0 184:254.0 185:255.0 186:255.0 187:230.0 188:255.0 189:255.0 190:255.0 191:241.0 192:245.0 193:245.0 194:255.0 195:253.0 196:0.0 197:3.0 198:0.0 199:241.0 200:255.0 201:255.0 202:254.0 203:11.0 204:2.0 205:0.0 206:255.0 207:244.0 208:255.0 209:248.0 210:249.0 211:255.0 212:254.0 213:255.0 214:250.0 215:248.0 216:11.0 217:0.0 218:22.0 219:255.0 220:246.0 221:241.0 222:250.0 223:0.0 224:0.0 225:2.0 226:255.0 227:253.0 228:242.0 229:255.0 230:247.0 231:255.0 232:243.0 233:253.0 234:255.0 235:255.0 236:255.0 237:0.0 238:0.0 239:10.0 240:0.0 241:255.0 242:247.0 243:0.0 244:11.0 245:0.0 246:249.0 247:255.0 248:253.0 249:253.0 250:252.0 251:248.0 252:255.0 253:248.0 254:246.0 255:255.0 256:248.0 257:255.0 258:0.0 259:4.0 260:13.0 261:224.0 262:255.0 263:255.0 264:1.0 265:0.0 266:0.0 267:0.0 268:255.0 269:255.0 270:255.0 271:251.0 272:255.0 273:253.0 274:255.0 275:255.0 276:251.0 277:253.0 278:14.0 279:0.0 280:14.0 281:255.0 282:241.0 283:255.0 284:0.0 285:17.0 286:0.0 287:0.0 288:0.0 289:255.0 290:251.0 291:255.0 292:245.0 293:255.0 294:255.0 295:232.0 296:255.0 297:247.0 298:5.0 299:15.0 300:0.0 301:254.0 302:255.0 303:251.0 304:255.0 305:0.0 306:0.0 307:2.0 308:3.0 309:250.0 310:253.0 311:248.0 312:255.0 313:251.0 314:255.0 315:252.0 316:255.0 317:255.0 318:0.0 319:0.0 320:0.0 321:244.0 322:255.0 323:252.0 324:255.0 325:250.0 326:0.0 327:6.0 328:0.0 329:253.0 330:253.0 331:255.0 332:255.0 333:246.0 334:255.0 335:246.0 336:255.0 337:250.0 338:0.0 339:16.0 340:0.0 341:255.0 342:245.0 343:250.0 344:245.0 345:255.0 346:238.0 347:255.0 348:14.0 349:2.0 350:0.0 351:10.0 352:0.0 353:255.0 354:254.0 355:255.0 356:0.0 357:0.0 358:0.0 359:250.0 360:255.0 361:245.0 362:254.0 363:255.0 364:255.0 365:255.0 366:255.0 367:237.0 368:3.0 369:12.0 370:0.0 371:0.0 372:0.0 373:255.0 374:255.0 375:255.0 376:4.0 377:7.0 378:9.0 379:255.0 380:255.0 381:253.0 382:255.0 383:251.0 384:246.0 385:255.0 386:250.0 387:255.0 388:255.0 389:0.0 390:5.0 391:6.0 392:8.0 393:0.0 394:0.0 395:0.0 396:0.0 397:2.0 398:0.0 399:236.0 400:255.0 
2.077743004025327E-8 2.8691926819516112E-8 1.2029645348024004E-8 1.0051264849757848E-7 4.494216284754576E-8 1.9111225344373715E-7 3.7528608849861446E-10 8.174136136703242E-8 0.0 1:255.0 2:255.0 3:250.0 4:240.0 5:12.0 6:0.0 7:0.0 8:15.0 9:0.0 10:0.0 11:254.0 12:255.0 13:251.0 14:240.0 15:255.0 16:241.0 17:255.0 18:243.0 19:255.0 20:255.0 21:250.0 22:253.0 23:255.0 24:255.0 25:0.0 26:24.0 27:10.0 28:0.0 29:4.0 30:15.0 31:246.0 32:255.0 33:255.0 34:246.0 35:250.0 36:255.0 37:253.0 38:255.0 39:255.0 40:250.0 41:255.0 42:251.0 43:248.0 44:8.0 45:0.0 46:0.0 47:0.0 48:0.0 49:0.0 50:0.0 51:0.0 52:6.0 53:0.0 54:255.0 55:248.0 56:249.0 57:240.0 58:255.0 59:242.0 60:255.0 61:255.0 62:248.0 63:11.0 64:0.0 65:0.0 66:20.0 67:255.0 68:13.0 69:6.0 70:0.0 71:7.0 72:0.0 73:2.0 74:0.0 75:255.0 76:255.0 77:255.0 78:255.0 79:251.0 80:253.0 81:242.0 82:12.0 83:8.0 84:6.0 85:1.0 86:0.0 87:255.0 88:0.0 89:6.0 90:21.0 91:0.0 92:0.0 93:9.0 94:13.0 95:252.0 96:247.0 97:249.0 98:245.0 99:255.0 100:251.0 101:255.0 102:0.0 103:0.0 104:0.0 105:255.0 106:255.0 107:246.0 108:255.0 109:250.0 110:229.0 111:12.0 112:21.0 113:0.0 114:0.0 115:0.0 116:7.0 117:255.0 118:243.0 119:255.0 120:255.0 121:253.0 122:0.0 123:9.0 124:21.0 125:234.0 126:255.0 127:243.0 128:249.0 129:255.0 130:255.0 131:0.0 132:0.0 133:0.0 134:4.0 135:18.0 136:0.0 137:241.0 138:255.0 139:251.0 140:255.0 141:0.0 142:14.0 143:0.0 144:0.0 145:255.0 146:254.0 147:255.0 148:255.0 149:255.0 150:250.0 151:254.0 152:4.0 153:8.0 154:0.0 155:0.0 156:7.0 157:13.0 158:241.0 159:255.0 160:250.0 161:255.0 162:0.0 163:0.0 164:12.0 165:245.0 166:253.0 167:255.0 168:244.0 169:255.0 170:255.0 171:242.0 172:255.0 173:250.0 174:0.0 175:15.0 176:0.0 177:0.0 178:11.0 179:243.0 180:255.0 181:255.0 182:2.0 183:0.0 184:0.0 185:255.0 186:255.0 187:238.0 188:255.0 189:254.0 190:255.0 191:255.0 192:249.0 193:255.0 194:0.0 195:0.0 196:0.0 197:14.0 198:0.0 199:19.0 200:255.0 201:249.0 202:0.0 203:16.0 204:0.0 205:9.0 206:0.0 207:255.0 208:244.0 209:255.0 210:245.0 211:255.0 212:255.0 213:254.0 214:255.0 215:0.0 216:14.0 217:0.0 218:0.0 219:0.0 220:254.0 221:255.0 222:3.0 223:0.0 224:25.0 225:0.0 226:0.0 227:246.0 228:255.0 229:255.0 230:255.0 231:255.0 232:240.0 233:255.0 234:255.0 235:226.0 236:2.0 237:1.0 238:19.0 239:2.0 240:241.0 241:255.0 242:0.0 243:0.0 244:0.0 245:6.0 246:22.0 247:12.0 248:249.0 249:253.0 250:252.0 251:251.0 252:255.0 253:254.0 254:255.0 255:255.0 256:255.0 257:0.0 258:0.0 259:0.0 260:11.0 261:248.0 262:255.0 263:251.0 264:8.0 265:0.0 266:0.0 267:5.0 268:0.0 269:255.0 270:250.0 271:255.0 272:255.0 273:255.0 274:255.0 275:255.0 276:236.0 277:253.0 278:3.0 279:6.0 280:0.0 281:255.0 282:255.0 283:253.0 284:19.0 285:1.0 286:13.0 287:2.0 288:2.0 289:19.0 290:227.0 291:255.0 292:255.0 293:237.0 294:255.0 295:255.0 296:255.0 297:253.0 298:18.0 299:0.0 300:1.0 301:255.0 302:255.0 303:244.0 304:255.0 305:1.0 306:0.0 307:0.0 308:7.0 309:0.0 310:4.0 311:0.0 312:255.0 313:251.0 314:255.0 315:242.0 316:255.0 317:254.0 318:0.0 319:5.0 320:5.0 321:255.0 322:241.0 323:255.0 324:255.0 325:255.0 326:0.0 327:2.0 328:0.0 329:0.0 330:0.0 331:12.0 332:0.0 333:249.0 334:255.0 335:245.0 336:255.0 337:239.0 338:23.0 339:1.0 340:0.0 341:247.0 342:251.0 343:255.0 344:247.0 345:255.0 346:255.0 347:0.0 348:9.0 349:0.0 350:15.0 351:0.0 352:4.0 353:10.0 354:240.0 355:255.0 356:242.0 357:11.0 358:0.0 359:0.0 360:15.0 361:255.0 362:248.0 363:242.0 364:255.0 365:241.0 366:247.0 367:255.0 368:0.0 369:3.0 370:0.0 371:10.0 372:11.0 373:0.0 374:10.0 375:7.0 376:1.0 377:8.0 378:2.0 379:7.0 380:251.0 381:244.0 382:255.0 383:255.0 384:243.0 385:255.0 386:249.0 387:255.0 388:13.0 389:1.0 390:4.0 391:1.0 392:0.0 393:8.0 394:0.0 395:0.0 396:14.0 397:0.0 398:3.0 399:0.0 400:255.0 
0.0 0.0 0.0 0.0 0.0 3.617592010994754E-8 0.0 6.862212294494716E-8 7.027581310067705E-8 1:252.0 2:246.0 3:255.0 4:250.0 5:248.0 6:7.0 7:0.0 8:5.0 9:0.0 10:0.0 11:18.0 12:252.0 13:241.0 14:255.0 15:255.0 16:255.0 17:253.0 18:255.0 19:246.0 20:255.0 21:255.0 22:255.0 23:255.0 24:255.0 25:2.0 26:5.0 27:0.0 28:0.0 29:5.0 30:0.0 31:0.0 32:0.0 33:20.0 34:239.0 35:255.0 36:247.0 37:238.0 38:255.0 39:252.0 40:255.0 41:249.0 42:246.0 43:244.0 44:5.0 45:0.0 46:0.0 47:2.0 48:3.0 49:0.0 50:4.0 51:9.0 52:0.0 53:0.0 54:12.0 55:255.0 56:255.0 57:255.0 58:255.0 59:251.0 60:238.0 61:254.0 62:255.0 63:0.0 64:8.0 65:0.0 66:7.0 67:0.0 68:9.0 69:14.0 70:0.0 71:2.0 72:2.0 73:1.0 74:0.0 75:0.0 76:255.0 77:243.0 78:240.0 79:255.0 80:255.0 81:251.0 82:0.0 83:12.0 84:0.0 85:0.0 86:255.0 87:255.0 88:248.0 89:0.0 90:0.0 91:1.0 92:0.0 93:11.0 94:0.0 95:10.0 96:249.0 97:255.0 98:252.0 99:253.0 100:255.0 101:255.0 102:0.0 103:0.0 104:22.0 105:242.0 106:248.0 107:255.0 108:247.0 109:255.0 110:0.0 111:0.0 112:19.0 113:0.0 114:11.0 115:7.0 116:0.0 117:231.0 118:255.0 119:246.0 120:255.0 121:243.0 122:0.0 123:5.0 124:0.0 125:243.0 126:255.0 127:255.0 128:248.0 129:236.0 130:255.0 131:255.0 132:0.0 133:0.0 134:8.0 135:0.0 136:0.0 137:21.0 138:233.0 139:255.0 140:255.0 141:4.0 142:0.0 143:2.0 144:0.0 145:255.0 146:246.0 147:249.0 148:255.0 149:255.0 150:247.0 151:250.0 152:255.0 153:0.0 154:5.0 155:0.0 156:6.0 157:0.0 158:255.0 159:251.0 160:245.0 161:12.0 162:0.0 163:0.0 164:21.0 165:0.0 166:255.0 167:255.0 168:251.0 169:255.0 170:255.0 171:247.0 172:255.0 173:0.0 174:5.0 175:1.0 176:0.0 177:6.0 178:0.0 179:1.0 180:253.0 181:251.0 182:9.0 183:14.0 184:0.0 185:13.0 186:255.0 187:255.0 188:250.0 189:246.0 190:252.0 191:255.0 192:243.0 193:255.0 194:0.0 195:1.0 196:0.0 197:0.0 198:8.0 199:0.0 200:255.0 201:255.0 202:0.0 203:12.0 204:0.0 205:0.0 206:8.0 207:241.0 208:255.0 209:255.0 210:255.0 211:255.0 212:246.0 213:255.0 214:255.0 215:0.0 216:14.0 217:10.0 218:12.0 219:0.0 220:255.0 221:255.0 222:0.0 223:0.0 224:4.0 225:0.0 226:11.0 227:7.0 228:255.0 229:255.0 230:232.0 231:255.0 232:255.0 233:243.0 234:255.0 235:249.0 236:6.0 237:0.0 238:0.0 239:9.0 240:248.0 241:249.0 242:19.0 243:0.0 244:0.0 245:21.0 246:0.0 247:9.0 248:252.0 249:247.0 250:255.0 251:255.0 252:249.0 253:255.0 254:238.0 255:255.0 256:0.0 257:15.0 258:8.0 259:0.0 260:12.0 261:249.0 262:244.0 263:255.0 264:10.0 265:0.0 266:14.0 267:1.0 268:3.0 269:255.0 270:249.0 271:247.0 272:253.0 273:255.0 274:255.0 275:254.0 276:252.0 277:0.0 278:0.0 279:12.0 280:0.0 281:255.0 282:255.0 283:250.0 284:0.0 285:24.0 286:2.0 287:0.0 288:3.0 289:0.0 290:255.0 291:250.0 292:255.0 293:241.0 294:246.0 295:255.0 296:250.0 297:12.0 298:0.0 299:0.0 300:0.0 301:248.0 302:255.0 303:254.0 304:255.0 305:0.0 306:5.0 307:0.0 308:4.0 309:0.0 310:0.0 311:244.0 312:255.0 313:254.0 314:255.0 315:255.0 316:252.0 317:0.0 318:8.0 319:0.0 320:7.0 321:254.0 322:255.0 323:255.0 324:250.0 325:6.0 326:0.0 327:6.0 328:0.0 329:3.0 330:0.0 331:4.0 332:255.0 333:251.0 334:253.0 335:244.0 336:255.0 337:0.0 338:0.0 339:3.0 340:253.0 341:241.0 342:255.0 343:249.0 344:255.0 345:3.0 346:0.0 347:4.0 348:8.0 349:7.0 350:0.0 351:5.0 352:244.0 353:255.0 354:255.0 355:254.0 356:255.0 357:1.0 358:0.0 359:6.0 360:252.0 361:255.0 362:255.0 363:255.0 364:238.0 365:255.0 366:15.0 367:0.0 368:0.0 369:0.0 370:0.0 371:10.0 372:10.0 373:0.0 374:247.0 375:255.0 376:0.0 377:8.0 378:1.0 379:2.0 380:236.0 381:246.0 382:253.0 383:253.0 384:255.0 385:242.0 386:255.0 387:254.0 388:0.0 389:0.0 390:7.0 391:0.0 392:0.0 393:0.0 394:9.0 395:0.0 396:13.0 397:0.0 398:255.0 399:255.0 400:251.0 
1.0283160238257633E-8 3.0491825172679842E-9 4.484020184100501E-8 3.6508560409239646E-8 3.1810697458117777E-9 7.750943473421823E-9 0.0 0.0 0.0 1:255.0 2:250.0 3:3.0 4:1.0 5:0.0 6:3.0 7:0.0 8:5.0 9:0.0 10:8.0 11:0.0 12:6.0 13:0.0 14:255.0 15:252.0 16:255.0 17:255.0 18:243.0 19:255.0 20:255.0 21:255.0 22:1.0 23:0.0 24:5.0 25:5.0 26:3.0 27:13.0 28:0.0 29:0.0 30:0.0 31:18.0 32:0.0 33:0.0 34:255.0 35:255.0 36:249.0 37:253.0 38:255.0 39:255.0 40:250.0 41:0.0 42:17.0 43:0.0 44:5.0 45:0.0 46:2.0 47:0.0 48:7.0 49:8.0 50:4.0 51:0.0 52:9.0 53:13.0 54:0.0 55:4.0 56:255.0 57:240.0 58:255.0 59:242.0 60:255.0 61:0.0 62:0.0 63:13.0 64:0.0 65:255.0 66:255.0 67:255.0 68:252.0 69:246.0 70:251.0 71:255.0 72:2.0 73:0.0 74:22.0 75:0.0 76:255.0 77:255.0 78:255.0 79:251.0 80:253.0 81:2.0 82:4.0 83:0.0 84:15.0 85:250.0 86:245.0 87:246.0 88:255.0 89:254.0 90:255.0 91:255.0 92:0.0 93:17.0 94:0.0 95:0.0 96:255.0 97:249.0 98:245.0 99:255.0 100:251.0 101:7.0 102:3.0 103:4.0 104:0.0 105:248.0 106:255.0 107:255.0 108:255.0 109:255.0 110:227.0 111:251.0 112:255.0 113:244.0 114:16.0 115:11.0 116:5.0 117:255.0 118:243.0 119:255.0 120:255.0 121:0.0 122:0.0 123:255.0 124:241.0 125:255.0 126:255.0 127:225.0 128:255.0 129:255.0 130:244.0 131:255.0 132:255.0 133:249.0 134:0.0 135:0.0 136:0.0 137:241.0 138:255.0 139:251.0 140:255.0 141:6.0 142:0.0 143:255.0 144:255.0 145:240.0 146:255.0 147:255.0 148:251.0 149:253.0 150:255.0 151:245.0 152:252.0 153:255.0 154:0.0 155:19.0 156:0.0 157:13.0 158:241.0 159:255.0 160:250.0 161:0.0 162:0.0 163:3.0 164:0.0 165:255.0 166:255.0 167:251.0 168:253.0 169:250.0 170:255.0 171:254.0 172:255.0 173:251.0 174:254.0 175:236.0 176:11.0 177:5.0 178:4.0 179:255.0 180:249.0 181:0.0 182:0.0 183:6.0 184:0.0 185:255.0 186:253.0 187:255.0 188:255.0 189:255.0 190:250.0 191:253.0 192:255.0 193:247.0 194:255.0 195:255.0 196:0.0 197:0.0 198:0.0 199:255.0 200:252.0 201:0.0 202:4.0 203:0.0 204:0.0 205:253.0 206:254.0 207:245.0 208:254.0 209:253.0 210:255.0 211:255.0 212:255.0 213:255.0 214:238.0 215:238.0 216:13.0 217:12.0 218:0.0 219:255.0 220:255.0 221:0.0 222:5.0 223:1.0 224:4.0 225:255.0 226:250.0 227:255.0 228:255.0 229:255.0 230:249.0 231:255.0 232:244.0 233:243.0 234:255.0 235:250.0 236:0.0 237:0.0 238:23.0 239:239.0 240:255.0 241:0.0 242:0.0 243:0.0 244:6.0 245:250.0 246:244.0 247:255.0 248:253.0 249:255.0 250:255.0 251:254.0 252:250.0 253:255.0 254:253.0 255:246.0 256:255.0 257:9.0 258:0.0 259:10.0 260:0.0 261:3.0 262:4.0 263:7.0 264:2.0 265:248.0 266:248.0 267:255.0 268:239.0 269:254.0 270:244.0 271:255.0 272:255.0 273:243.0 274:255.0 275:253.0 276:241.0 277:0.0 278:0.0 279:2.0 280:0.0 281:255.0 282:253.0 283:0.0 284:15.0 285:5.0 286:251.0 287:236.0 288:255.0 289:255.0 290:255.0 291:241.0 292:255.0 293:255.0 294:255.0 295:255.0 296:255.0 297:15.0 298:0.0 299:26.0 300:0.0 301:253.0 302:255.0 303:0.0 304:1.0 305:0.0 306:255.0 307:255.0 308:249.0 309:242.0 310:255.0 311:251.0 312:255.0 313:254.0 314:255.0 315:237.0 316:6.0 317:0.0 318:11.0 319:248.0 320:255.0 321:255.0 322:242.0 323:8.0 324:4.0 325:0.0 326:251.0 327:255.0 328:247.0 329:255.0 330:242.0 331:255.0 332:255.0 333:246.0 334:251.0 335:255.0 336:0.0 337:1.0 338:0.0 339:255.0 340:255.0 341:254.0 342:255.0 343:242.0 344:255.0 345:0.0 346:10.0 347:0.0 348:255.0 349:255.0 350:239.0 351:247.0 352:248.0 353:255.0 354:255.0 355:232.0 356:20.0 357:1.0 358:0.0 359:255.0 360:255.0 361:255.0 362:242.0 363:255.0 364:255.0 365:255.0 366:0.0 367:17.0 368:0.0 369:0.0 370:10.0 371:12.0 372:0.0 373:2.0 374:0.0 375:11.0 376:0.0 377:1.0 378:0.0 379:255.0 380:255.0 381:255.0 382:255.0 383:251.0 384:254.0 385:246.0 386:0.0 387:16.0 388:3.0 389:0.0 390:1.0 391:0.0 392:0.0 393:0.0 394:0.0 395:0.0 396:18.0 397:1.0 398:0.0 399:255.0 400:255.0 
0.0 0.0 0.0 3.525090020839151E-9 0.0 1.4737873489481658E-8 0.0 0.0 0.0 1:251.0 2:255.0 3:255.0 4:251.0 5:255.0 6:249.0 7:253.0 8:0.0 9:0.0 10:12.0 11:0.0 12:0.0 13:6.0 14:5.0 15:0.0 16:7.0 17:255.0 18:250.0 19:255.0 20:250.0 21:255.0 22:244.0 23:255.0 24:255.0 25:245.0 26:17.0 27:0.0 28:11.0 29:5.0 30:0.0 31:3.0 32:9.0 33:0.0 34:8.0 35:10.0 36:1.0 37:0.0 38:255.0 39:255.0 40:255.0 41:253.0 42:255.0 43:250.0 44:238.0 45:3.0 46:0.0 47:1.0 48:0.0 49:2.0 50:12.0 51:0.0 52:0.0 53:9.0 54:0.0 55:0.0 56:2.0 57:7.0 58:0.0 59:0.0 60:248.0 61:255.0 62:249.0 63:255.0 64:13.0 65:0.0 66:0.0 67:18.0 68:0.0 69:249.0 70:246.0 71:252.0 72:255.0 73:254.0 74:0.0 75:15.0 76:4.0 77:0.0 78:16.0 79:1.0 80:5.0 81:252.0 82:247.0 83:255.0 84:0.0 85:14.0 86:0.0 87:1.0 88:251.0 89:255.0 90:255.0 91:248.0 92:255.0 93:255.0 94:240.0 95:6.0 96:0.0 97:2.0 98:0.0 99:17.0 100:0.0 101:255.0 102:255.0 103:4.0 104:5.0 105:0.0 106:0.0 107:0.0 108:255.0 109:248.0 110:255.0 111:255.0 112:242.0 113:236.0 114:255.0 115:249.0 116:0.0 117:3.0 118:0.0 119:0.0 120:13.0 121:255.0 122:0.0 123:0.0 124:0.0 125:9.0 126:0.0 127:21.0 128:242.0 129:255.0 130:250.0 131:236.0 132:255.0 133:255.0 134:253.0 135:254.0 136:0.0 137:1.0 138:16.0 139:2.0 140:3.0 141:248.0 142:12.0 143:2.0 144:0.0 145:8.0 146:0.0 147:0.0 148:255.0 149:251.0 150:255.0 151:250.0 152:255.0 153:255.0 154:237.0 155:255.0 156:0.0 157:0.0 158:0.0 159:1.0 160:0.0 161:255.0 162:0.0 163:0.0 164:11.0 165:0.0 166:11.0 167:3.0 168:253.0 169:253.0 170:255.0 171:247.0 172:253.0 173:249.0 174:250.0 175:255.0 176:0.0 177:1.0 178:0.0 179:6.0 180:0.0 181:3.0 182:0.0 183:7.0 184:0.0 185:0.0 186:247.0 187:251.0 188:255.0 189:249.0 190:255.0 191:255.0 192:255.0 193:251.0 194:255.0 195:255.0 196:0.0 197:8.0 198:0.0 199:0.0 200:9.0 201:7.0 202:0.0 203:8.0 204:0.0 205:0.0 206:255.0 207:255.0 208:247.0 209:255.0 210:254.0 211:255.0 212:236.0 213:255.0 214:252.0 215:251.0 216:5.0 217:5.0 218:0.0 219:0.0 220:0.0 221:0.0 222:18.0 223:0.0 224:8.0 225:2.0 226:250.0 227:255.0 228:253.0 229:240.0 230:255.0 231:239.0 232:255.0 233:255.0 234:246.0 235:245.0 236:0.0 237:0.0 238:0.0 239:18.0 240:0.0 241:8.0 242:0.0 243:7.0 244:2.0 245:7.0 246:254.0 247:245.0 248:255.0 249:244.0 250:255.0 251:255.0 252:243.0 253:255.0 254:249.0 255:255.0 256:13.0 257:22.0 258:0.0 259:0.0 260:15.0 261:0.0 262:20.0 263:0.0 264:2.0 265:0.0 266:255.0 267:236.0 268:255.0 269:255.0 270:248.0 271:242.0 272:255.0 273:241.0 274:247.0 275:255.0 276:0.0 277:0.0 278:0.0 279:14.0 280:247.0 281:255.0 282:0.0 283:0.0 284:3.0 285:0.0 286:0.0 287:255.0 288:255.0 289:247.0 290:251.0 291:255.0 292:247.0 293:255.0 294:255.0 295:0.0 296:9.0 297:19.0 298:11.0 299:0.0 300:255.0 301:255.0 302:1.0 303:11.0 304:0.0 305:0.0 306:0.0 307:0.0 308:255.0 309:255.0 310:241.0 311:255.0 312:255.0 313:255.0 314:0.0 315:2.0 316:0.0 317:0.0 318:10.0 319:1.0 320:255.0 321:254.0 322:6.0 323:0.0 324:0.0 325:19.0 326:0.0 327:5.0 328:255.0 329:255.0 330:248.0 331:254.0 332:254.0 333:255.0 334:8.0 335:11.0 336:0.0 337:1.0 338:0.0 339:255.0 340:254.0 341:255.0 342:0.0 343:6.0 344:23.0 345:0.0 346:13.0 347:0.0 348:3.0 349:255.0 350:255.0 351:255.0 352:0.0 353:0.0 354:3.0 355:0.0 356:10.0 357:0.0 358:255.0 359:238.0 360:255.0 361:255.0 362:247.0 363:255.0 364:6.0 365:0.0 366:5.0 367:20.0 368:0.0 369:0.0 370:26.0 371:0.0 372:0.0 373:42.0 374:0.0 375:9.0 376:0.0 377:244.0 378:254.0 379:232.0 380:255.0 381:255.0 382:243.0 383:255.0 384:255.0 385:0.0 386:5.0 387:0.0 388:5.0 389:22.0 390:0.0 391:5.0 392:4.0 393:0.0 394:0.0 395:4.0 396:250.0 397:255.0 398:254.0 399:255.0 400:251.0 
0.0 0.0 0.0 0.0 0.0 0.0 0.0 0.0 2.7176905374703274E-8 1:254.0 2:255.0 3:255.0 4:244.0 5:9.0 6:4.0 7:0.0 8:4.0 9:10.0 10:0.0 11:5.0 12:0.0 13:3.0 14:255.0 15:255.0 16:255.0 17:255.0 18:240.0 19:255.0 20:247.0 21:255.0 22:234.0 23:255.0 24:0.0 25:1.0 26:0.0 27:3.0 28:0.0 29:0.0 30:0.0 31:0.0 32:16.0 33:0.0 34:0.0 35:12.0 36:0.0 37:232.0 38:255.0 39:241.0 40:255.0 41:255.0 42:255.0 43:10.0 44:16.0 45:0.0 46:0.0 47:255.0 48:254.0 49:255.0 50:249.0 51:255.0 52:0.0 53:0.0 54:0.0 55:24.0 56:1.0 57:16.0 58:239.0 59:255.0 60:255.0 61:255.0 62:0.0 63:0.0 64:0.0 65:13.0 66:239.0 67:255.0 68:251.0 69:247.0 70:247.0 71:255.0 72:255.0 73:249.0 74:6.0 75:0.0 76:2.0 77:0.0 78:255.0 79:243.0 80:240.0 81:0.0 82:8.0 83:12.0 84:0.0 85:255.0 86:255.0 87:255.0 88:254.0 89:250.0 90:255.0 91:246.0 92:251.0 93:253.0 94:255.0 95:21.0 96:0.0 97:2.0 98:9.0 99:255.0 100:254.0 101:0.0 102:8.0 103:0.0 104:12.0 105:255.0 106:250.0 107:243.0 108:251.0 109:254.0 110:253.0 111:255.0 112:255.0 113:255.0 114:246.0 115:0.0 116:4.0 117:4.0 118:0.0 119:0.0 120:253.0 121:6.0 122:0.0 123:0.0 124:0.0 125:241.0 126:255.0 127:255.0 128:255.0 129:246.0 130:255.0 131:255.0 132:234.0 133:255.0 134:248.0 135:20.0 136:0.0 137:0.0 138:10.0 139:6.0 140:247.0 141:0.0 142:7.0 143:1.0 144:0.0 145:255.0 146:244.0 147:252.0 148:255.0 149:255.0 150:252.0 151:248.0 152:255.0 153:255.0 154:254.0 155:0.0 156:8.0 157:0.0 158:0.0 159:4.0 160:0.0 161:0.0 162:1.0 163:9.0 164:0.0 165:255.0 166:255.0 167:249.0 168:255.0 169:255.0 170:255.0 171:255.0 172:255.0 173:255.0 174:255.0 175:255.0 176:255.0 177:0.0 178:0.0 179:0.0 180:0.0 181:8.0 182:0.0 183:7.0 184:13.0 185:251.0 186:255.0 187:237.0 188:255.0 189:255.0 190:255.0 191:255.0 192:255.0 193:255.0 194:255.0 195:255.0 196:255.0 197:0.0 198:0.0 199:0.0 200:0.0 201:0.0 202:26.0 203:0.0 204:0.0 205:255.0 206:235.0 207:255.0 208:251.0 209:255.0 210:255.0 211:255.0 212:255.0 213:255.0 214:255.0 215:255.0 216:255.0 217:0.0 218:0.0 219:0.0 220:0.0 221:18.0 222:0.0 223:0.0 224:6.0 225:255.0 226:254.0 227:252.0 228:255.0 229:255.0 230:255.0 231:255.0 232:255.0 233:255.0 234:255.0 235:255.0 236:255.0 237:0.0 238:0.0 239:0.0 240:0.0 241:0.0 242:6.0 243:6.0 244:6.0 245:232.0 246:255.0 247:250.0 248:255.0 249:255.0 250:255.0 251:255.0 252:255.0 253:255.0 254:255.0 255:255.0 256:255.0 257:0.0 258:0.0 259:0.0 260:0.0 261:255.0 262:0.0 263:0.0 264:15.0 265:6.0 266:255.0 267:255.0 268:241.0 269:255.0 270:255.0 271:255.0 272:255.0 273:255.0 274:255.0 275:255.0 276:255.0 277:0.0 278:0.0 279:0.0 280:0.0 281:246.0 282:3.0 283:0.0 284:0.0 285:8.0 286:0.0 287:255.0 288:254.0 289:255.0 290:255.0 291:255.0 292:255.0 293:255.0 294:255.0 295:255.0 296:255.0 297:0.0 298:0.0 299:0.0 300:0.0 301:255.0 302:255.0 303:4.0 304:1.0 305:7.0 306:0.0 307:247.0 308:255.0 309:255.0 310:255.0 311:255.0 312:255.0 313:255.0 314:255.0 315:255.0 316:255.0 317:0.0 318:0.0 319:0.0 320:0.0 321:247.0 322:255.0 323:239.0 324:0.0 325:3.0 326:0.0 327:0.0 328:255.0 329:255.0 330:247.0 331:249.0 332:255.0 333:245.0 334:241.0 335:255.0 336:0.0 337:1.0 338:2.0 339:3.0 340:255.0 341:255.0 342:234.0 343:246.0 344:9.0 345:0.0 346:15.0 347:2.0 348:240.0 349:255.0 350:244.0 351:255.0 352:248.0 353:255.0 354:255.0 355:0.0 356:5.0 357:0.0 358:0.0 359:255.0 360:245.0 361:250.0 362:255.0 363:255.0 364:255.0 365:3.0 366:0.0 367:5.0 368:5.0 369:0.0 370:14.0 371:243.0 372:14.0 373:0.0 374:0.0 375:0.0 376:0.0 377:15.0 378:255.0 379:255.0 380:253.0 381:255.0 382:254.0 383:252.0 384:253.0 385:247.0 386:255.0 387:0.0 388:2.0 389:0.0 390:0.0 391:2.0 392:0.0 393:6.0 394:0.0 395:4.0 396:13.0 397:248.0 398:227.0 399:255.0 400:252.0 
0.0 0.0 0.0 0.0 0.0 2.2099770053697434E-8 0.0 0.0 3.0393992775752476E-8 1:255.0 2:246.0 3:255.0 4:252.0 5:247.0 6:253.0 7:255.0 8:0.0 9:1.0 10:2.0 11:0.0 12:0.0 13:1.0 14:2.0 15:0.0 16:251.0 17:255.0 18:254.0 19:255.0 20:255.0 21:255.0 22:255.0 23:255.0 24:255.0 25:255.0 26:255.0 27:0.0 28:7.0 29:0.0 30:13.0 31:1.0 32:1.0 33:0.0 34:10.0 35:0.0 36:10.0 37:252.0 38:243.0 39:255.0 40:252.0 41:251.0 42:247.0 43:254.0 44:251.0 45:255.0 46:0.0 47:9.0 48:3.0 49:4.0 50:0.0 51:252.0 52:250.0 53:17.0 54:0.0 55:2.0 56:0.0 57:0.0 58:255.0 59:255.0 60:239.0 61:255.0 62:252.0 63:253.0 64:0.0 65:0.0 66:4.0 67:9.0 68:0.0 69:10.0 70:255.0 71:248.0 72:255.0 73:244.0 74:5.0 75:0.0 76:19.0 77:0.0 78:0.0 79:240.0 80:254.0 81:242.0 82:255.0 83:0.0 84:13.0 85:16.0 86:255.0 87:235.0 88:255.0 89:255.0 90:239.0 91:255.0 92:255.0 93:223.0 94:255.0 95:255.0 96:0.0 97:0.0 98:7.0 99:255.0 100:251.0 101:255.0 102:242.0 103:27.0 104:0.0 105:0.0 106:255.0 107:255.0 108:246.0 109:255.0 110:247.0 111:255.0 112:255.0 113:255.0 114:248.0 115:254.0 116:255.0 117:3.0 118:0.0 119:0.0 120:19.0 121:246.0 122:255.0 123:0.0 124:7.0 125:9.0 126:239.0 127:251.0 128:255.0 129:247.0 130:255.0 131:255.0 132:240.0 133:254.0 134:252.0 135:249.0 136:255.0 137:10.0 138:0.0 139:8.0 140:0.0 141:255.0 142:8.0 143:0.0 144:0.0 145:254.0 146:248.0 147:255.0 148:248.0 149:255.0 150:241.0 151:255.0 152:255.0 153:251.0 154:255.0 155:255.0 156:246.0 157:0.0 158:15.0 159:0.0 160:6.0 161:0.0 162:0.0 163:3.0 164:0.0 165:255.0 166:255.0 167:251.0 168:253.0 169:244.0 170:255.0 171:255.0 172:251.0 173:255.0 174:255.0 175:243.0 176:255.0 177:0.0 178:11.0 179:0.0 180:0.0 181:0.0 182:0.0 183:6.0 184:0.0 185:255.0 186:253.0 187:255.0 188:255.0 189:255.0 190:255.0 191:249.0 192:246.0 193:250.0 194:255.0 195:255.0 196:253.0 197:0.0 198:0.0 199:11.0 200:0.0 201:0.0 202:4.0 203:0.0 204:0.0 205:253.0 206:254.0 207:245.0 208:254.0 209:255.0 210:251.0 211:250.0 212:255.0 213:255.0 214:242.0 215:255.0 216:240.0 217:5.0 218:0.0 219:12.0 220:0.0 221:0.0 222:5.0 223:1.0 224:4.0 225:255.0 226:250.0 227:255.0 228:255.0 229:255.0 230:252.0 231:252.0 232:255.0 233:253.0 234:251.0 235:255.0 236:255.0 237:12.0 238:0.0 239:0.0 240:0.0 241:0.0 242:0.0 243:0.0 244:6.0 245:250.0 246:244.0 247:255.0 248:253.0 249:251.0 250:255.0 251:255.0 252:235.0 253:251.0 254:255.0 255:245.0 256:249.0 257:0.0 258:13.0 259:0.0 260:11.0 261:3.0 262:4.0 263:7.0 264:2.0 265:248.0 266:248.0 267:255.0 268:239.0 269:248.0 270:254.0 271:255.0 272:255.0 273:255.0 274:255.0 275:243.0 276:255.0 277:1.0 278:13.0 279:0.0 280:0.0 281:255.0 282:253.0 283:0.0 284:15.0 285:5.0 286:251.0 287:236.0 288:255.0 289:255.0 290:255.0 291:239.0 292:255.0 293:255.0 294:251.0 295:255.0 296:241.0 297:7.0 298:0.0 299:25.0 300:0.0 301:253.0 302:255.0 303:0.0 304:1.0 305:0.0 306:255.0 307:255.0 308:249.0 309:246.0 310:255.0 311:240.0 312:255.0 313:250.0 314:255.0 315:241.0 316:13.0 317:0.0 318:5.0 319:251.0 320:255.0 321:255.0 322:248.0 323:1.0 324:3.0 325:0.0 326:247.0 327:255.0 328:253.0 329:255.0 330:242.0 331:255.0 332:255.0 333:255.0 334:251.0 335:254.0 336:1.0 337:1.0 338:0.0 339:255.0 340:254.0 341:255.0 342:251.0 343:255.0 344:0.0 345:13.0 346:0.0 347:255.0 348:247.0 349:255.0 350:255.0 351:249.0 352:253.0 353:255.0 354:255.0 355:0.0 356:10.0 357:0.0 358:255.0 359:238.0 360:255.0 361:253.0 362:255.0 363:236.0 364:251.0 365:0.0 366:0.0 367:11.0 368:10.0 369:0.0 370:255.0 371:251.0 372:0.0 373:8.0 374:0.0 375:6.0 376:0.0 377:244.0 378:254.0 379:232.0 380:255.0 381:254.0 382:245.0 383:255.0 384:255.0 385:255.0 386:2.0 387:0.0 388:0.0 389:4.0 390:1.0 391:8.0 392:0.0 393:0.0 394:11.0 395:0.0 396:251.0 397:255.0 398:254.0 399:255.0 400:251.0 
0.0 0.0 0.0 8.759803549241271E-8 0.0 4.3639385949746765E-9 0.0 7.971491847431299E-8 0.0 1:255.0 2:255.0 3:246.0 4:247.0 5:255.0 6:255.0 7:249.0 8:6.0 9:0.0 10:3.0 11:3.0 12:3.0 13:5.0 14:252.0 15:251.0 16:255.0 17:255.0 18:255.0 19:250.0 20:255.0 21:250.0 22:255.0 23:255.0 24:6.0 25:3.0 26:0.0 27:21.0 28:0.0 29:5.0 30:0.0 31:0.0 32:0.0 33:0.0 34:9.0 35:0.0 36:255.0 37:248.0 38:254.0 39:250.0 40:255.0 41:255.0 42:248.0 43:7.0 44:5.0 45:5.0 46:0.0 47:4.0 48:0.0 49:1.0 50:0.0 51:4.0 52:28.0 53:0.0 54:0.0 55:31.0 56:0.0 57:255.0 58:245.0 59:255.0 60:252.0 61:255.0 62:242.0 63:0.0 64:0.0 65:6.0 66:0.0 67:6.0 68:255.0 69:255.0 70:255.0 71:228.0 72:6.0 73:0.0 74:0.0 75:0.0 76:15.0 77:0.0 78:15.0 79:233.0 80:247.0 81:11.0 82:0.0 83:19.0 84:3.0 85:0.0 86:7.0 87:0.0 88:249.0 89:255.0 90:255.0 91:255.0 92:0.0 93:0.0 94:19.0 95:0.0 96:0.0 97:4.0 98:0.0 99:255.0 100:255.0 101:0.0 102:22.0 103:0.0 104:0.0 105:0.0 106:0.0 107:5.0 108:255.0 109:249.0 110:249.0 111:249.0 112:10.0 113:8.0 114:0.0 115:6.0 116:14.0 117:16.0 118:0.0 119:255.0 120:240.0 121:5.0 122:0.0 123:13.0 124:9.0 125:11.0 126:0.0 127:9.0 128:241.0 129:255.0 130:255.0 131:249.0 132:0.0 133:0.0 134:5.0 135:4.0 136:0.0 137:0.0 138:25.0 139:246.0 140:255.0 141:0.0 142:12.0 143:0.0 144:2.0 145:0.0 146:0.0 147:0.0 148:255.0 149:247.0 150:255.0 151:253.0 152:254.0 153:255.0 154:5.0 155:0.0 156:7.0 157:1.0 158:0.0 159:5.0 160:0.0 161:0.0 162:1.0 163:0.0 164:0.0 165:2.0 166:0.0 167:3.0 168:254.0 169:253.0 170:254.0 171:255.0 172:255.0 173:251.0 174:3.0 175:0.0 176:1.0 177:0.0 178:1.0 179:0.0 180:0.0 181:0.0 182:1.0 183:0.0 184:0.0 185:2.0 186:0.0 187:3.0 188:254.0 189:253.0 190:254.0 191:255.0 192:255.0 193:251.0 194:3.0 195:0.0 196:1.0 197:0.0 198:0.0 199:6.0 200:0.0 201:0.0 202:1.0 203:0.0 204:0.0 205:2.0 206:0.0 207:3.0 208:254.0 209:253.0 210:254.0 211:255.0 212:255.0 213:251.0 214:3.0 215:0.0 216:1.0 217:3.0 218:0.0 219:3.0 220:0.0 221:0.0 222:1.0 223:0.0 224:0.0 225:2.0 226:0.0 227:3.0 228:254.0 229:253.0 230:254.0 231:255.0 232:255.0 233:251.0 234:3.0 235:0.0 236:1.0 237:0.0 238:6.0 239:9.0 240:0.0 241:0.0 242:1.0 243:0.0 244:0.0 245:2.0 246:0.0 247:3.0 248:254.0 249:253.0 250:254.0 251:255.0 252:255.0 253:251.0 254:3.0 255:0.0 256:1.0 257:3.0 258:0.0 259:0.0 260:7.0 261:0.0 262:1.0 263:0.0 264:0.0 265:2.0 266:0.0 267:3.0 268:254.0 269:253.0 270:254.0 271:255.0 272:255.0 273:251.0 274:3.0 275:0.0 276:1.0 277:14.0 278:0.0 279:6.0 280:0.0 281:0.0 282:1.0 283:0.0 284:0.0 285:2.0 286:0.0 287:3.0 288:254.0 289:253.0 290:254.0 291:255.0 292:255.0 293:251.0 294:3.0 295:0.0 296:1.0 297:0.0 298:22.0 299:242.0 300:255.0 301:0.0 302:1.0 303:0.0 304:0.0 305:2.0 306:0.0 307:3.0 308:254.0 309:253.0 310:254.0 311:255.0 312:255.0 313:251.0 314:3.0 315:0.0 316:1.0 317:3.0 318:0.0 319:253.0 320:255.0 321:255.0 322:250.0 323:0.0 324:0.0 325:6.0 326:3.0 327:6.0 328:0.0 329:0.0 330:255.0 331:251.0 332:246.0 333:255.0 334:8.0 335:0.0 336:10.0 337:0.0 338:1.0 339:255.0 340:254.0 341:255.0 342:255.0 343:0.0 344:0.0 345:6.0 346:0.0 347:5.0 348:6.0 349:0.0 350:0.0 351:2.0 352:4.0 353:20.0 354:0.0 355:9.0 356:0.0 357:10.0 358:0.0 359:248.0 360:255.0 361:243.0 362:244.0 363:255.0 364:0.0 365:0.0 366:21.0 367:10.0 368:0.0 369:10.0 370:0.0 371:8.0 372:0.0 373:0.0 374:8.0 375:8.0 376:10.0 377:0.0 378:255.0 379:255.0 380:235.0 381:254.0 382:255.0 383:248.0 384:254.0 385:3.0 386:0.0 387:0.0 388:12.0 389:0.0 390:18.0 391:0.0 392:0.0 393:5.0 394:0.0 395:0.0 396:0.0 397:255.0 398:240.0 399:248.0 400:255.0 
0.0 0.0 0.0 0.0 0.0 0.0 3.548432246231492E-9 0.0 0.0 1:255.0 2:249.0 3:250.0 4:250.0 5:255.0 6:255.0 7:248.0 8:252.0 9:255.0 10:0.0 11:6.0 12:5.0 13:0.0 14:8.0 15:255.0 16:250.0 17:252.0 18:255.0 19:255.0 20:255.0 21:252.0 22:255.0 23:255.0 24:255.0 25:243.0 26:243.0 27:15.0 28:0.0 29:0.0 30:13.0 31:0.0 32:4.0 33:3.0 34:0.0 35:0.0 36:255.0 37:255.0 38:245.0 39:255.0 40:255.0 41:253.0 42:243.0 43:225.0 44:255.0 45:255.0 46:0.0 47:0.0 48:6.0 49:17.0 50:1.0 51:0.0 52:0.0 53:9.0 54:0.0 55:0.0 56:0.0 57:0.0 58:255.0 59:242.0 60:243.0 61:255.0 62:243.0 63:255.0 64:255.0 65:0.0 66:8.0 67:0.0 68:0.0 69:0.0 70:255.0 71:255.0 72:0.0 73:0.0 74:2.0 75:0.0 76:13.0 77:8.0 78:247.0 79:255.0 80:255.0 81:251.0 82:255.0 83:246.0 84:0.0 85:7.0 86:14.0 87:231.0 88:255.0 89:255.0 90:245.0 91:250.0 92:255.0 93:244.0 94:255.0 95:1.0 96:0.0 97:0.0 98:8.0 99:255.0 100:227.0 101:251.0 102:255.0 103:8.0 104:4.0 105:0.0 106:0.0 107:250.0 108:255.0 109:252.0 110:255.0 111:230.0 112:255.0 113:249.0 114:238.0 115:16.0 116:4.0 117:6.0 118:1.0 119:4.0 120:255.0 121:255.0 122:240.0 123:8.0 124:0.0 125:7.0 126:255.0 127:253.0 128:255.0 129:247.0 130:255.0 131:255.0 132:251.0 133:255.0 134:255.0 135:242.0 136:0.0 137:0.0 138:3.0 139:0.0 140:4.0 141:253.0 142:255.0 143:0.0 144:11.0 145:0.0 146:255.0 147:248.0 148:255.0 149:255.0 150:244.0 151:251.0 152:255.0 153:243.0 154:255.0 155:252.0 156:4.0 157:0.0 158:4.0 159:0.0 160:3.0 161:250.0 162:250.0 163:5.0 164:2.0 165:0.0 166:255.0 167:249.0 168:255.0 169:255.0 170:254.0 171:255.0 172:255.0 173:253.0 174:255.0 175:252.0 176:1.0 177:5.0 178:0.0 179:0.0 180:9.0 181:2.0 182:24.0 183:0.0 184:0.0 185:17.0 186:247.0 187:254.0 188:255.0 189:255.0 190:254.0 191:255.0 192:255.0 193:253.0 194:255.0 195:252.0 196:1.0 197:7.0 198:0.0 199:0.0 200:3.0 201:0.0 202:0.0 203:7.0 204:0.0 205:0.0 206:255.0 207:255.0 208:249.0 209:255.0 210:254.0 211:255.0 212:255.0 213:253.0 214:255.0 215:252.0 216:1.0 217:0.0 218:6.0 219:4.0 220:9.0 221:11.0 222:0.0 223:14.0 224:0.0 225:0.0 226:255.0 227:251.0 228:255.0 229:255.0 230:254.0 231:255.0 232:255.0 233:253.0 234:255.0 235:252.0 236:1.0 237:3.0 238:4.0 239:0.0 240:2.0 241:251.0 242:247.0 243:3.0 244:2.0 245:9.0 246:1.0 247:255.0 248:245.0 249:255.0 250:254.0 251:255.0 252:255.0 253:253.0 254:255.0 255:252.0 256:1.0 257:17.0 258:0.0 259:0.0 260:11.0 261:255.0 262:255.0 263:0.0 264:0.0 265:7.0 266:0.0 267:255.0 268:255.0 269:255.0 270:254.0 271:255.0 272:255.0 273:253.0 274:255.0 275:252.0 276:1.0 277:0.0 278:0.0 279:13.0 280:0.0 281:249.0 282:255.0 283:0.0 284:11.0 285:0.0 286:11.0 287:255.0 288:241.0 289:255.0 290:254.0 291:255.0 292:255.0 293:253.0 294:255.0 295:252.0 296:1.0 297:9.0 298:18.0 299:0.0 300:16.0 301:255.0 302:241.0 303:11.0 304:0.0 305:1.0 306:0.0 307:255.0 308:255.0 309:255.0 310:254.0 311:255.0 312:255.0 313:253.0 314:255.0 315:252.0 316:1.0 317:0.0 318:15.0 319:0.0 320:245.0 321:255.0 322:235.0 323:255.0 324:0.0 325:6.0 326:0.0 327:11.0 328:247.0 329:255.0 330:235.0 331:255.0 332:250.0 333:255.0 334:245.0 335:1.0 336:0.0 337:0.0 338:1.0 339:255.0 340:254.0 341:246.0 342:255.0 343:255.0 344:0.0 345:0.0 346:0.0 347:0.0 348:11.0 349:251.0 350:255.0 351:240.0 352:243.0 353:255.0 354:255.0 355:0.0 356:20.0 357:10.0 358:0.0 359:248.0 360:255.0 361:254.0 362:253.0 363:247.0 364:3.0 365:0.0 366:4.0 367:8.0 368:0.0 369:16.0 370:243.0 371:255.0 372:254.0 373:3.0 374:0.0 375:4.0 376:0.0 377:0.0 378:255.0 379:255.0 380:235.0 381:255.0 382:249.0 383:252.0 384:255.0 385:244.0 386:0.0 387:11.0 388:6.0 389:0.0 390:0.0 391:8.0 392:0.0 393:0.0 394:14.0 395:0.0 396:255.0 397:255.0 398:240.0 399:248.0 400:255.0 
1.5493829233293426E-8 0.0 0.0 3.666678965665228E-8 6.27852532162925E-8 1.2969471765525357E-7 0.0 3.959849719500658E-8 1.7909745788861713E-8 1:255.0 2:251.0 3:248.0 4:238.0 5:255.0 6:249.0 7:255.0 8:250.0 9:249.0 10:255.0 11:0.0 12:0.0 13:12.0 14:253.0 15:255.0 16:253.0 17:254.0 18:252.0 19:251.0 20:255.0 21:240.0 22:255.0 23:255.0 24:255.0 25:250.0 26:251.0 27:6.0 28:0.0 29:10.0 30:0.0 31:4.0 32:14.0 33:0.0 34:2.0 35:0.0 36:6.0 37:255.0 38:255.0 39:255.0 40:255.0 41:255.0 42:222.0 43:247.0 44:255.0 45:4.0 46:0.0 47:8.0 48:0.0 49:0.0 50:0.0 51:255.0 52:0.0 53:18.0 54:2.0 55:4.0 56:0.0 57:0.0 58:248.0 59:255.0 60:230.0 61:250.0 62:255.0 63:255.0 64:0.0 65:0.0 66:11.0 67:0.0 68:255.0 69:255.0 70:245.0 71:255.0 72:255.0 73:236.0 74:251.0 75:2.0 76:0.0 77:17.0 78:0.0 79:254.0 80:242.0 81:255.0 82:255.0 83:239.0 84:0.0 85:0.0 86:3.0 87:255.0 88:253.0 89:242.0 90:255.0 91:255.0 92:255.0 93:255.0 94:255.0 95:1.0 96:14.0 97:0.0 98:4.0 99:0.0 100:255.0 101:249.0 102:239.0 103:14.0 104:0.0 105:12.0 106:0.0 107:254.0 108:251.0 109:253.0 110:255.0 111:235.0 112:247.0 113:255.0 114:246.0 115:243.0 116:238.0 117:18.0 118:0.0 119:11.0 120:0.0 121:247.0 122:16.0 123:4.0 124:0.0 125:2.0 126:0.0 127:255.0 128:255.0 129:255.0 130:251.0 131:255.0 132:243.0 133:254.0 134:251.0 135:255.0 136:255.0 137:0.0 138:0.0 139:6.0 140:3.0 141:255.0 142:0.0 143:0.0 144:7.0 145:0.0 146:255.0 147:254.0 148:251.0 149:252.0 150:255.0 151:246.0 152:255.0 153:255.0 154:248.0 155:247.0 156:252.0 157:0.0 158:3.0 159:0.0 160:0.0 161:0.0 162:0.0 163:0.0 164:0.0 165:255.0 166:255.0 167:254.0 168:254.0 169:253.0 170:249.0 171:255.0 172:255.0 173:253.0 174:251.0 175:255.0 176:254.0 177:2.0 178:0.0 179:11.0 180:0.0 181:0.0 182:0.0 183:0.0 184:0.0 185:255.0 186:255.0 187:254.0 188:254.0 189:255.0 190:255.0 191:251.0 192:252.0 193:253.0 194:255.0 195:247.0 196:253.0 197:3.0 198:0.0 199:0.0 200:14.0 201:0.0 202:0.0 203:0.0 204:0.0 205:255.0 206:255.0 207:254.0 208:254.0 209:249.0 210:255.0 211:255.0 212:255.0 213:252.0 214:255.0 215:231.0 216:255.0 217:8.0 218:4.0 219:27.0 220:0.0 221:0.0 222:0.0 223:0.0 224:0.0 225:255.0 226:255.0 227:254.0 228:254.0 229:255.0 230:255.0 231:252.0 232:250.0 233:249.0 234:255.0 235:255.0 236:255.0 237:0.0 238:8.0 239:0.0 240:13.0 241:0.0 242:0.0 243:0.0 244:0.0 245:255.0 246:255.0 247:254.0 248:254.0 249:255.0 250:252.0 251:249.0 252:255.0 253:255.0 254:244.0 255:255.0 256:226.0 257:0.0 258:5.0 259:19.0 260:0.0 261:0.0 262:0.0 263:0.0 264:0.0 265:255.0 266:255.0 267:254.0 268:254.0 269:252.0 270:252.0 271:255.0 272:255.0 273:255.0 274:254.0 275:255.0 276:255.0 277:3.0 278:0.0 279:0.0 280:5.0 281:0.0 282:0.0 283:0.0 284:0.0 285:255.0 286:255.0 287:254.0 288:254.0 289:255.0 290:255.0 291:250.0 292:249.0 293:243.0 294:255.0 295:219.0 296:255.0 297:0.0 298:14.0 299:0.0 300:255.0 301:0.0 302:0.0 303:0.0 304:0.0 305:255.0 306:255.0 307:254.0 308:254.0 309:250.0 310:255.0 311:250.0 312:255.0 313:255.0 314:252.0 315:6.0 316:0.0 317:0.0 318:2.0 319:255.0 320:247.0 321:250.0 322:17.0 323:0.0 324:0.0 325:4.0 326:0.0 327:242.0 328:255.0 329:255.0 330:255.0 331:249.0 332:255.0 333:249.0 334:255.0 335:0.0 336:2.0 337:0.0 338:255.0 339:251.0 340:245.0 341:255.0 342:0.0 343:16.0 344:14.0 345:0.0 346:12.0 347:255.0 348:226.0 349:248.0 350:255.0 351:250.0 352:255.0 353:255.0 354:8.0 355:0.0 356:4.0 357:21.0 358:233.0 359:255.0 360:255.0 361:250.0 362:247.0 363:234.0 364:2.0 365:5.0 366:9.0 367:0.0 368:255.0 369:255.0 370:242.0 371:255.0 372:0.0 373:0.0 374:0.0 375:20.0 376:0.0 377:231.0 378:255.0 379:246.0 380:255.0 381:255.0 382:255.0 383:255.0 384:254.0 385:9.0 386:0.0 387:19.0 388:0.0 389:0.0 390:0.0 391:0.0 392:0.0 393:10.0 394:19.0 395:244.0 396:255.0 397:255.0 398:252.0 399:253.0 400:255.0 
4.896163242294582E-8 0.0 8.629881132317756E-8 4.456012424750636E-8 4.9872647402147344E-8 1.4584436417231757E-7 4.964424935564316E-8 1.3237388229630436E-8 0.0 1:255.0 2:255.0 3:251.0 4:255.0 5:0.0 6:4.0 7:3.0 8:251.0 9:250.0 10:254.0 11:255.0 12:250.0 13:255.0 14:255.0 15:241.0 16:255.0 17:255.0 18:243.0 19:255.0 20:255.0 21:254.0 22:239.0 23:248.0 24:255.0 25:2.0 26:0.0 27:18.0 28:255.0 29:255.0 30:248.0 31:255.0 32:246.0 33:255.0 34:242.0 35:255.0 36:246.0 37:253.0 38:255.0 39:255.0 40:250.0 41:247.0 42:9.0 43:12.0 44:0.0 45:0.0 46:4.0 47:0.0 48:6.0 49:0.0 50:0.0 51:9.0 52:255.0 53:240.0 54:250.0 55:255.0 56:249.0 57:240.0 58:255.0 59:242.0 60:255.0 61:255.0 62:0.0 63:0.0 64:0.0 65:0.0 66:254.0 67:255.0 68:255.0 69:5.0 70:25.0 71:0.0 72:0.0 73:0.0 74:8.0 75:244.0 76:255.0 77:255.0 78:255.0 79:251.0 80:253.0 81:255.0 82:0.0 83:0.0 84:2.0 85:255.0 86:243.0 87:247.0 88:255.0 89:238.0 90:0.0 91:4.0 92:7.0 93:3.0 94:0.0 95:255.0 96:252.0 97:249.0 98:245.0 99:255.0 100:251.0 101:0.0 102:0.0 103:4.0 104:255.0 105:249.0 106:255.0 107:252.0 108:247.0 109:255.0 110:255.0 111:242.0 112:10.0 113:0.0 114:3.0 115:9.0 116:0.0 117:255.0 118:243.0 119:255.0 120:255.0 121:2.0 122:0.0 123:0.0 124:255.0 125:255.0 126:236.0 127:255.0 128:255.0 129:255.0 130:251.0 131:251.0 132:240.0 133:0.0 134:12.0 135:0.0 136:1.0 137:241.0 138:255.0 139:251.0 140:255.0 141:4.0 142:0.0 143:13.0 144:243.0 145:255.0 146:253.0 147:255.0 148:254.0 149:246.0 150:255.0 151:255.0 152:255.0 153:255.0 154:0.0 155:0.0 156:2.0 157:13.0 158:241.0 159:255.0 160:250.0 161:1.0 162:3.0 163:2.0 164:250.0 165:251.0 166:254.0 167:255.0 168:253.0 169:255.0 170:232.0 171:255.0 172:250.0 173:243.0 174:255.0 175:6.0 176:0.0 177:2.0 178:0.0 179:255.0 180:251.0 181:5.0 182:0.0 183:0.0 184:255.0 185:255.0 186:255.0 187:244.0 188:255.0 189:253.0 190:255.0 191:255.0 192:248.0 193:255.0 194:245.0 195:15.0 196:0.0 197:5.0 198:5.0 199:0.0 200:255.0 201:0.0 202:0.0 203:16.0 204:0.0 205:243.0 206:248.0 207:255.0 208:249.0 209:250.0 210:250.0 211:246.0 212:255.0 213:248.0 214:255.0 215:246.0 216:255.0 217:5.0 218:0.0 219:14.0 220:249.0 221:9.0 222:13.0 223:0.0 224:0.0 225:255.0 226:247.0 227:250.0 228:253.0 229:255.0 230:246.0 231:255.0 232:255.0 233:252.0 234:244.0 235:255.0 236:240.0 237:9.0 238:7.0 239:0.0 240:255.0 241:244.0 242:0.0 243:12.0 244:0.0 245:255.0 246:255.0 247:251.0 248:255.0 249:249.0 250:255.0 251:252.0 252:233.0 253:255.0 254:255.0 255:255.0 256:250.0 257:0.0 258:6.0 259:0.0 260:249.0 261:255.0 262:255.0 263:254.0 264:4.0 265:0.0 266:248.0 267:255.0 268:245.0 269:255.0 270:255.0 271:254.0 272:249.0 273:255.0 274:249.0 275:247.0 276:255.0 277:244.0 278:0.0 279:9.0 280:8.0 281:242.0 282:247.0 283:251.0 284:0.0 285:22.0 286:0.0 287:255.0 288:240.0 289:237.0 290:255.0 291:253.0 292:255.0 293:255.0 294:248.0 295:255.0 296:253.0 297:255.0 298:0.0 299:0.0 300:18.0 301:255.0 302:251.0 303:253.0 304:255.0 305:0.0 306:0.0 307:0.0 308:12.0 309:10.0 310:240.0 311:255.0 312:248.0 313:255.0 314:250.0 315:255.0 316:255.0 317:0.0 318:1.0 319:8.0 320:0.0 321:255.0 322:241.0 323:255.0 324:255.0 325:255.0 326:0.0 327:2.0 328:0.0 329:0.0 330:255.0 331:243.0 332:255.0 333:255.0 334:254.0 335:255.0 336:255.0 337:14.0 338:0.0 339:1.0 340:16.0 341:247.0 342:251.0 343:255.0 344:247.0 345:255.0 346:255.0 347:0.0 348:9.0 349:8.0 350:0.0 351:255.0 352:246.0 353:252.0 354:255.0 355:255.0 356:240.0 357:0.0 358:0.0 359:6.0 360:246.0 361:255.0 362:248.0 363:242.0 364:255.0 365:241.0 366:247.0 367:255.0 368:0.0 369:1.0 370:0.0 371:11.0 372:23.0 373:0.0 374:0.0 375:0.0 376:10.0 377:13.0 378:17.0 379:0.0 380:255.0 381:244.0 382:255.0 383:255.0 384:243.0 385:255.0 386:249.0 387:255.0 388:13.0 389:0.0 390:22.0 391:0.0 392:3.0 393:0.0 394:10.0 395:9.0 396:0.0 397:0.0 398:12.0 399:0.0 400:250.0 
0.0 0.0 0.0 0.0 0.0 0.0 0.0 0.0 7.002158011058299E-8 1:255.0 2:238.0 3:255.0 4:249.0 5:254.0 6:12.0 7:0.0 8:2.0 9:5.0 10:0.0 11:9.0 12:3.0 13:243.0 14:255.0 15:251.0 16:255.0 17:252.0 18:253.0 19:255.0 20:244.0 21:245.0 22:255.0 23:243.0 24:255.0 25:8.0 26:12.0 27:0.0 28:0.0 29:0.0 30:21.0 31:0.0 32:0.0 33:15.0 34:255.0 35:252.0 36:250.0 37:255.0 38:251.0 39:243.0 40:255.0 41:255.0 42:254.0 43:255.0 44:9.0 45:0.0 46:0.0 47:6.0 48:6.0 49:0.0 50:3.0 51:0.0 52:3.0 53:0.0 54:3.0 55:0.0 56:255.0 57:237.0 58:255.0 59:255.0 60:246.0 61:251.0 62:0.0 63:5.0 64:0.0 65:10.0 66:10.0 67:0.0 68:243.0 69:255.0 70:0.0 71:0.0 72:7.0 73:8.0 74:0.0 75:0.0 76:3.0 77:255.0 78:231.0 79:244.0 80:253.0 81:255.0 82:5.0 83:0.0 84:25.0 85:0.0 86:255.0 87:255.0 88:255.0 89:253.0 90:255.0 91:255.0 92:0.0 93:2.0 94:0.0 95:21.0 96:0.0 97:0.0 98:255.0 99:255.0 100:255.0 101:1.0 102:4.0 103:10.0 104:0.0 105:243.0 106:251.0 107:245.0 108:254.0 109:253.0 110:240.0 111:255.0 112:255.0 113:0.0 114:3.0 115:0.0 116:0.0 117:0.0 118:255.0 119:221.0 120:250.0 121:0.0 122:19.0 123:0.0 124:0.0 125:255.0 126:255.0 127:255.0 128:255.0 129:255.0 130:255.0 131:245.0 132:238.0 133:12.0 134:0.0 135:26.0 136:0.0 137:15.0 138:241.0 139:255.0 140:252.0 141:11.0 142:0.0 143:8.0 144:2.0 145:249.0 146:251.0 147:249.0 148:255.0 149:252.0 150:255.0 151:255.0 152:255.0 153:251.0 154:6.0 155:0.0 156:2.0 157:0.0 158:0.0 159:251.0 160:255.0 161:2.0 162:2.0 163:0.0 164:6.0 165:2.0 166:247.0 167:255.0 168:255.0 169:255.0 170:253.0 171:255.0 172:251.0 173:255.0 174:0.0 175:8.0 176:1.0 177:4.0 178:0.0 179:15.0 180:255.0 181:0.0 182:6.0 183:2.0 184:0.0 185:0.0 186:255.0 187:255.0 188:251.0 189:245.0 190:252.0 191:255.0 192:254.0 193:246.0 194:255.0 195:2.0 196:0.0 197:0.0 198:2.0 199:0.0 200:255.0 201:0.0 202:0.0 203:4.0 204:8.0 205:0.0 206:0.0 207:255.0 208:255.0 209:255.0 210:254.0 211:254.0 212:247.0 213:255.0 214:235.0 215:255.0 216:3.0 217:1.0 218:1.0 219:7.0 220:240.0 221:255.0 222:7.0 223:0.0 224:0.0 225:9.0 226:0.0 227:6.0 228:247.0 229:255.0 230:249.0 231:255.0 232:255.0 233:249.0 234:255.0 235:251.0 236:0.0 237:0.0 238:8.0 239:0.0 240:5.0 241:247.0 242:6.0 243:0.0 244:9.0 245:0.0 246:0.0 247:7.0 248:255.0 249:255.0 250:240.0 251:255.0 252:245.0 253:236.0 254:241.0 255:255.0 256:0.0 257:3.0 258:6.0 259:0.0 260:2.0 261:255.0 262:255.0 263:0.0 264:0.0 265:8.0 266:4.0 267:0.0 268:0.0 269:255.0 270:255.0 271:255.0 272:255.0 273:255.0 274:255.0 275:233.0 276:11.0 277:1.0 278:0.0 279:0.0 280:8.0 281:251.0 282:255.0 283:255.0 284:0.0 285:0.0 286:2.0 287:6.0 288:0.0 289:254.0 290:255.0 291:248.0 292:252.0 293:248.0 294:251.0 295:255.0 296:0.0 297:1.0 298:17.0 299:0.0 300:3.0 301:255.0 302:255.0 303:247.0 304:2.0 305:6.0 306:0.0 307:2.0 308:2.0 309:4.0 310:244.0 311:255.0 312:242.0 313:255.0 314:255.0 315:246.0 316:10.0 317:0.0 318:7.0 319:0.0 320:255.0 321:254.0 322:255.0 323:255.0 324:250.0 325:6.0 326:0.0 327:6.0 328:0.0 329:11.0 330:0.0 331:6.0 332:253.0 333:249.0 334:9.0 335:8.0 336:0.0 337:0.0 338:6.0 339:0.0 340:250.0 341:241.0 342:255.0 343:249.0 344:255.0 345:3.0 346:0.0 347:4.0 348:8.0 349:0.0 350:9.0 351:0.0 352:10.0 353:10.0 354:0.0 355:14.0 356:5.0 357:14.0 358:255.0 359:238.0 360:255.0 361:255.0 362:255.0 363:255.0 364:238.0 365:255.0 366:15.0 367:0.0 368:0.0 369:0.0 370:9.0 371:10.0 372:0.0 373:7.0 374:12.0 375:0.0 376:5.0 377:3.0 378:237.0 379:255.0 380:255.0 381:246.0 382:253.0 383:253.0 384:255.0 385:242.0 386:255.0 387:254.0 388:0.0 389:3.0 390:0.0 391:4.0 392:0.0 393:0.0 394:0.0 395:19.0 396:251.0 397:255.0 398:255.0 399:250.0 400:255.0 
